digraph Tree {
node [shape=box, style="filled", color="black"] ;
0 [label="Avg_education_importance <= 0.184\nentropy = 0.303\nsamples = 6500\nvalue = [6150, 350]\nclass = NOT_Greens", fillcolor="#e68844"] ;
1 [label="Avg_government_satisfaction <= -0.004\nentropy = 0.008\nsamples = 4708\nvalue = [4705, 3]\nclass = NOT_Greens", fillcolor="#e58139"] ;
0 -> 1 [labeldistance=2.5, labelangle=45, headlabel="True"] ;
2 [label="entropy = 0.0\nsamples = 4016\nvalue = [4016, 0]\nclass = NOT_Greens", fillcolor="#e58139"] ;
1 -> 2 ;
3 [label="Avg_environmental_importance <= -0.861\nentropy = 0.04\nsamples = 692\nvalue = [689, 3]\nclass = NOT_Greens", fillcolor="#e5823a"] ;
1 -> 3 ;
4 [label="entropy = 0.242\nsamples = 75\nvalue = [72, 3]\nclass = NOT_Greens", fillcolor="#e68641"] ;
3 -> 4 ;
5 [label="entropy = 0.0\nsamples = 617\nvalue = [617, 0]\nclass = NOT_Greens", fillcolor="#e58139"] ;
3 -> 5 ;
6 [label="Avg_environmental_importance <= -0.827\nentropy = 0.709\nsamples = 1792\nvalue = [1445, 347]\nclass = NOT_Greens", fillcolor="#eb9f69"] ;
0 -> 6 [labeldistance=2.5, labelangle=-45, headlabel="False"] ;
7 [label="Weighted_education_rank <= -0.062\nentropy = 0.845\nsamples = 474\nvalue = [129, 345]\nclass = Greens", fillcolor="#83c2ef"] ;
6 -> 7 ;
8 [label="entropy = 0.531\nsamples = 390\nvalue = [47, 343]\nclass = Greens", fillcolor="#54aae9"] ;
7 -> 8 ;
9 [label="entropy = 0.162\nsamples = 84\nvalue = [82, 2]\nclass = NOT_Greens", fillcolor="#e6843e"] ;
7 -> 9 ;
10 [label="Avg_Residancy_Altitude <= -0.176\nentropy = 0.016\nsamples = 1318\nvalue = [1316, 2]\nclass = NOT_Greens", fillcolor="#e58139"] ;
6 -> 10 ;
11 [label="entropy = 0.087\nsamples = 182\nvalue = [180, 2]\nclass = NOT_Greens", fillcolor="#e5823b"] ;
10 -> 11 ;
12 [label="entropy = 0.0\nsamples = 1136\nvalue = [1136, 0]\nclass = NOT_Greens", fillcolor="#e58139"] ;
10 -> 12 ;
}