digraph Tree {
node [shape=box, style="filled", color="black"] ;
0 [label="Weighted_education_rank <= 0.094\nentropy = 3.307\nsamples = 6500\nvalue = [351, 610, 350, 288, 1303, 224, 211, 1623, 326, 358\n274, 315, 267]\nclass = Purples", fillcolor="#3978e510"] ;
1 [label="Weighted_education_rank <= -0.465\nentropy = 2.978\nsamples = 4399\nvalue = [62, 610, 350, 288, 122, 223, 209, 1623, 326, 24\n19, 312, 231]\nclass = Purples", fillcolor="#3978e544"] ;
0 -> 1 [labeldistance=2.5, labelangle=45, headlabel="True"] ;
2 [label="Number_of_valued_Kneset_members <= -0.047\nentropy = 2.203\nsamples = 2802\nvalue = [12, 289, 0, 284, 21, 47, 13, 1507, 322, 8, 4\n214, 81]\nclass = Purples", fillcolor="#3978e57a"] ;
1 -> 2 ;
3 [label="Avg_education_importance <= 0.052\nentropy = 2.617\nsamples = 1486\nvalue = [3, 287, 0, 282, 4, 43, 12, 343, 282, 3, 3, 203\n21]\nclass = Purples", fillcolor="#3978e50c"] ;
2 -> 3 ;
4 [label="Avg_environmental_importance <= -0.078\nentropy = 2.266\nsamples = 1054\nvalue = [3, 287, 0, 282, 2, 27, 8, 245, 3, 0, 1, 189, 7]\nclass = Browns", fillcolor="#e5ce3902"] ;
3 -> 4 ;
5 [label="Avg_government_satisfaction <= -0.073\nentropy = 1.805\nsamples = 372\nvalue = [0, 53, 0, 68, 2, 18, 5, 216, 1, 0, 1, 8, 0]\nclass = Purples", fillcolor="#3978e57c"] ;
4 -> 5 ;
6 [label="Avg_education_importance <= -0.101\nentropy = 1.444\nsamples = 264\nvalue = [0, 52, 0, 9, 1, 8, 5, 182, 0, 0, 1, 6, 0]\nclass = Purples", fillcolor="#3978e59c"] ;
5 -> 6 ;
7 [label="Most_Important_Issue <= 1.5\nentropy = 1.678\nsamples = 94\nvalue = [0, 47, 0, 1, 1, 7, 3, 34, 0, 0, 1, 0, 0]\nclass = Browns", fillcolor="#e5ce3937"] ;
6 -> 7 ;
8 [label="Avg_government_satisfaction <= -0.116\nentropy = 0.235\nsamples = 26\nvalue = [0, 25, 0, 0, 0, 0, 1, 0, 0, 0, 0, 0, 0]\nclass = Browns", fillcolor="#e5ce39f5"] ;
7 -> 8 ;
9 [label="entropy = 0.0\nsamples = 25\nvalue = [0, 25, 0, 0, 0, 0, 0, 0, 0, 0, 0, 0, 0]\nclass = Browns", fillcolor="#e5ce39ff"] ;
8 -> 9 ;
10 [label="entropy = 0.0\nsamples = 1\nvalue = [0, 0, 0, 0, 0, 0, 1, 0, 0, 0, 0, 0, 0]\nclass = Pinks", fillcolor="#39c5e5ff"] ;
8 -> 10 ;
11 [label="Number_of_valued_Kneset_members <= -0.815\nentropy = 1.783\nsamples = 68\nvalue = [0, 22, 0, 1, 1, 7, 2, 34, 0, 0, 1, 0, 0]\nclass = Purples", fillcolor="#3978e543"] ;
7 -> 11 ;
12 [label="Avg_Residancy_Altitude <= -0.142\nentropy = 1.784\nsamples = 36\nvalue = [0, 21, 0, 1, 1, 4, 2, 7, 0, 0, 0, 0, 0]\nclass = Browns", fillcolor="#e5ce397b"] ;
11 -> 12 ;
13 [label="Most_Important_Issue <= 3.0\nentropy = 0.795\nsamples = 25\nvalue = [0, 19, 0, 0, 0, 0, 0, 6, 0, 0, 0, 0, 0]\nclass = Browns", fillcolor="#e5ce39ae"] ;
12 -> 13 ;
14 [label="Number_of_valued_Kneset_members <= -1.688\nentropy = 0.971\nsamples = 10\nvalue = [0, 4, 0, 0, 0, 0, 0, 6, 0, 0, 0, 0, 0]\nclass = Purples", fillcolor="#3978e555"] ;
13 -> 14 ;
15 [label="entropy = 0.0\nsamples = 4\nvalue = [0, 4, 0, 0, 0, 0, 0, 0, 0, 0, 0, 0, 0]\nclass = Browns", fillcolor="#e5ce39ff"] ;
14 -> 15 ;
16 [label="entropy = 0.0\nsamples = 6\nvalue = [0, 0, 0, 0, 0, 0, 0, 6, 0, 0, 0, 0, 0]\nclass = Purples", fillcolor="#3978e5ff"] ;
14 -> 16 ;
17 [label="entropy = 0.0\nsamples = 15\nvalue = [0, 15, 0, 0, 0, 0, 0, 0, 0, 0, 0, 0, 0]\nclass = Browns", fillcolor="#e5ce39ff"] ;
13 -> 17 ;
18 [label="Most_Important_Issue <= 5.0\nentropy = 2.369\nsamples = 11\nvalue = [0, 2, 0, 1, 1, 4, 2, 1, 0, 0, 0, 0, 0]\nclass = Oranges", fillcolor="#39e5b439"] ;
12 -> 18 ;
19 [label="Avg_government_satisfaction <= -0.157\nentropy = 1.922\nsamples = 5\nvalue = [0, 2, 0, 1, 1, 0, 0, 1, 0, 0, 0, 0, 0]\nclass = Browns", fillcolor="#e5ce3940"] ;
18 -> 19 ;
20 [label="entropy = 0.0\nsamples = 2\nvalue = [0, 2, 0, 0, 0, 0, 0, 0, 0, 0, 0, 0, 0]\nclass = Browns", fillcolor="#e5ce39ff"] ;
19 -> 20 ;
21 [label="Avg_Residancy_Altitude <= 0.043\nentropy = 1.585\nsamples = 3\nvalue = [0, 0, 0, 1, 1, 0, 0, 1, 0, 0, 0, 0, 0]\nclass = Greys", fillcolor="#5be53900"] ;
19 -> 21 ;
22 [label="entropy = 0.0\nsamples = 1\nvalue = [0, 0, 0, 0, 0, 0, 0, 1, 0, 0, 0, 0, 0]\nclass = Purples", fillcolor="#3978e5ff"] ;
21 -> 22 ;
23 [label="entropy = 1.0\nsamples = 2\nvalue = [0, 0, 0, 1, 1, 0, 0, 0, 0, 0, 0, 0, 0]\nclass = Greys", fillcolor="#5be53900"] ;
21 -> 23 ;
24 [label="Avg_environmental_importance <= -0.272\nentropy = 0.918\nsamples = 6\nvalue = [0, 0, 0, 0, 0, 4, 2, 0, 0, 0, 0, 0, 0]\nclass = Oranges", fillcolor="#39e5b47f"] ;
18 -> 24 ;
25 [label="entropy = 0.0\nsamples = 2\nvalue = [0, 0, 0, 0, 0, 0, 2, 0, 0, 0, 0, 0, 0]\nclass = Pinks", fillcolor="#39c5e5ff"] ;
24 -> 25 ;
26 [label="entropy = 0.0\nsamples = 4\nvalue = [0, 0, 0, 0, 0, 4, 0, 0, 0, 0, 0, 0, 0]\nclass = Oranges", fillcolor="#39e5b4ff"] ;
24 -> 26 ;
27 [label="Avg_education_importance <= -0.21\nentropy = 0.839\nsamples = 32\nvalue = [0, 1, 0, 0, 0, 3, 0, 27, 0, 0, 1, 0, 0]\nclass = Purples", fillcolor="#3978e5d3"] ;
11 -> 27 ;
28 [label="Avg_government_satisfaction <= -0.167\nentropy = 0.811\nsamples = 4\nvalue = [0, 0, 0, 0, 0, 3, 0, 1, 0, 0, 0, 0, 0]\nclass = Oranges", fillcolor="#39e5b4aa"] ;
27 -> 28 ;
29 [label="entropy = 0.0\nsamples = 1\nvalue = [0, 0, 0, 0, 0, 0, 0, 1, 0, 0, 0, 0, 0]\nclass = Purples", fillcolor="#3978e5ff"] ;
28 -> 29 ;
30 [label="entropy = 0.0\nsamples = 3\nvalue = [0, 0, 0, 0, 0, 3, 0, 0, 0, 0, 0, 0, 0]\nclass = Oranges", fillcolor="#39e5b4ff"] ;
28 -> 30 ;
31 [label="Avg_Residancy_Altitude <= 0.393\nentropy = 0.443\nsamples = 28\nvalue = [0, 1, 0, 0, 0, 0, 0, 26, 0, 0, 1, 0, 0]\nclass = Purples", fillcolor="#3978e5ec"] ;
27 -> 31 ;
32 [label="Avg_environmental_importance <= -0.292\nentropy = 0.229\nsamples = 27\nvalue = [0, 1, 0, 0, 0, 0, 0, 26, 0, 0, 0, 0, 0]\nclass = Purples", fillcolor="#3978e5f5"] ;
31 -> 32 ;
33 [label="Number_of_valued_Kneset_members <= -0.351\nentropy = 0.918\nsamples = 3\nvalue = [0, 1, 0, 0, 0, 0, 0, 2, 0, 0, 0, 0, 0]\nclass = Purples", fillcolor="#3978e57f"] ;
32 -> 33 ;
34 [label="entropy = 0.0\nsamples = 1\nvalue = [0, 1, 0, 0, 0, 0, 0, 0, 0, 0, 0, 0, 0]\nclass = Browns", fillcolor="#e5ce39ff"] ;
33 -> 34 ;
35 [label="entropy = 0.0\nsamples = 2\nvalue = [0, 0, 0, 0, 0, 0, 0, 2, 0, 0, 0, 0, 0]\nclass = Purples", fillcolor="#3978e5ff"] ;
33 -> 35 ;
36 [label="entropy = 0.0\nsamples = 24\nvalue = [0, 0, 0, 0, 0, 0, 0, 24, 0, 0, 0, 0, 0]\nclass = Purples", fillcolor="#3978e5ff"] ;
32 -> 36 ;
37 [label="entropy = 0.0\nsamples = 1\nvalue = [0, 0, 0, 0, 0, 0, 0, 0, 0, 0, 1, 0, 0]\nclass = Violets", fillcolor="#e539e2ff"] ;
31 -> 37 ;
38 [label="Number_of_valued_Kneset_members <= -1.223\nentropy = 0.82\nsamples = 170\nvalue = [0, 5, 0, 8, 0, 1, 2, 148, 0, 0, 0, 6, 0]\nclass = Purples", fillcolor="#3978e5dc"] ;
6 -> 38 ;
39 [label="Most_Important_Issue <= 6.0\nentropy = 2.055\nsamples = 12\nvalue = [0, 3, 0, 5, 0, 0, 1, 2, 0, 0, 0, 1, 0]\nclass = Greys", fillcolor="#5be53939"] ;
38 -> 39 ;
40 [label="Most_Important_Issue <= 2.5\nentropy = 0.863\nsamples = 7\nvalue = [0, 2, 0, 5, 0, 0, 0, 0, 0, 0, 0, 0, 0]\nclass = Greys", fillcolor="#5be53999"] ;
39 -> 40 ;
41 [label="entropy = 0.0\nsamples = 2\nvalue = [0, 2, 0, 0, 0, 0, 0, 0, 0, 0, 0, 0, 0]\nclass = Browns", fillcolor="#e5ce39ff"] ;
40 -> 41 ;
42 [label="entropy = 0.0\nsamples = 5\nvalue = [0, 0, 0, 5, 0, 0, 0, 0, 0, 0, 0, 0, 0]\nclass = Greys", fillcolor="#5be539ff"] ;
40 -> 42 ;
43 [label="Avg_Residancy_Altitude <= -0.531\nentropy = 1.922\nsamples = 5\nvalue = [0, 1, 0, 0, 0, 0, 1, 2, 0, 0, 0, 1, 0]\nclass = Purples", fillcolor="#3978e540"] ;
39 -> 43 ;
44 [label="Weighted_education_rank <= -0.533\nentropy = 0.918\nsamples = 3\nvalue = [0, 0, 0, 0, 0, 0, 1, 2, 0, 0, 0, 0, 0]\nclass = Purples", fillcolor="#3978e57f"] ;
43 -> 44 ;
45 [label="entropy = 0.0\nsamples = 2\nvalue = [0, 0, 0, 0, 0, 0, 0, 2, 0, 0, 0, 0, 0]\nclass = Purples", fillcolor="#3978e5ff"] ;
44 -> 45 ;
46 [label="entropy = 0.0\nsamples = 1\nvalue = [0, 0, 0, 0, 0, 0, 1, 0, 0, 0, 0, 0, 0]\nclass = Pinks", fillcolor="#39c5e5ff"] ;
44 -> 46 ;
47 [label="entropy = 1.0\nsamples = 2\nvalue = [0, 1, 0, 0, 0, 0, 0, 0, 0, 0, 0, 1, 0]\nclass = Browns", fillcolor="#e5ce3900"] ;
43 -> 47 ;
48 [label="Most_Important_Issue <= 1.5\nentropy = 0.544\nsamples = 158\nvalue = [0, 2, 0, 3, 0, 1, 1, 146, 0, 0, 0, 5, 0]\nclass = Purples", fillcolor="#3978e5eb"] ;
38 -> 48 ;
49 [label="Avg_education_importance <= -0.054\nentropy = 1.5\nsamples = 4\nvalue = [0, 2, 0, 0, 0, 0, 1, 0, 0, 0, 0, 1, 0]\nclass = Browns", fillcolor="#e5ce3955"] ;
48 -> 49 ;
50 [label="entropy = 0.0\nsamples = 2\nvalue = [0, 2, 0, 0, 0, 0, 0, 0, 0, 0, 0, 0, 0]\nclass = Browns", fillcolor="#e5ce39ff"] ;
49 -> 50 ;
51 [label="entropy = 1.0\nsamples = 2\nvalue = [0, 0, 0, 0, 0, 0, 1, 0, 0, 0, 0, 1, 0]\nclass = Pinks", fillcolor="#39c5e500"] ;
49 -> 51 ;
52 [label="Weighted_education_rank <= -0.92\nentropy = 0.368\nsamples = 154\nvalue = [0, 0, 0, 3, 0, 1, 0, 146, 0, 0, 0, 4, 0]\nclass = Purples", fillcolor="#3978e5f1"] ;
48 -> 52 ;
53 [label="Most_Important_Issue <= 3.5\nentropy = 1.089\nsamples = 23\nvalue = [0, 0, 0, 3, 0, 0, 0, 17, 0, 0, 0, 3, 0]\nclass = Purples", fillcolor="#3978e5b2"] ;
52 -> 53 ;
54 [label="Most_Important_Issue <= 2.5\nentropy = 0.971\nsamples = 5\nvalue = [0, 0, 0, 3, 0, 0, 0, 2, 0, 0, 0, 0, 0]\nclass = Greys", fillcolor="#5be53955"] ;
53 -> 54 ;
55 [label="entropy = 0.0\nsamples = 2\nvalue = [0, 0, 0, 0, 0, 0, 0, 2, 0, 0, 0, 0, 0]\nclass = Purples", fillcolor="#3978e5ff"] ;
54 -> 55 ;
56 [label="entropy = 0.0\nsamples = 3\nvalue = [0, 0, 0, 3, 0, 0, 0, 0, 0, 0, 0, 0, 0]\nclass = Greys", fillcolor="#5be539ff"] ;
54 -> 56 ;
57 [label="Avg_education_importance <= -0.023\nentropy = 0.65\nsamples = 18\nvalue = [0, 0, 0, 0, 0, 0, 0, 15, 0, 0, 0, 3, 0]\nclass = Purples", fillcolor="#3978e5cc"] ;
53 -> 57 ;
58 [label="Avg_environmental_importance <= -0.099\nentropy = 0.954\nsamples = 8\nvalue = [0, 0, 0, 0, 0, 0, 0, 5, 0, 0, 0, 3, 0]\nclass = Purples", fillcolor="#3978e566"] ;
57 -> 58 ;
59 [label="Avg_Residancy_Altitude <= -0.675\nentropy = 1.0\nsamples = 6\nvalue = [0, 0, 0, 0, 0, 0, 0, 3, 0, 0, 0, 3, 0]\nclass = Purples", fillcolor="#3978e500"] ;
58 -> 59 ;
60 [label="entropy = 0.0\nsamples = 2\nvalue = [0, 0, 0, 0, 0, 0, 0, 2, 0, 0, 0, 0, 0]\nclass = Purples", fillcolor="#3978e5ff"] ;
59 -> 60 ;
61 [label="Number_of_valued_Kneset_members <= -0.334\nentropy = 0.811\nsamples = 4\nvalue = [0, 0, 0, 0, 0, 0, 0, 1, 0, 0, 0, 3, 0]\nclass = Whites", fillcolor="#e53992aa"] ;
59 -> 61 ;
62 [label="entropy = 0.0\nsamples = 3\nvalue = [0, 0, 0, 0, 0, 0, 0, 0, 0, 0, 0, 3, 0]\nclass = Whites", fillcolor="#e53992ff"] ;
61 -> 62 ;
63 [label="entropy = 0.0\nsamples = 1\nvalue = [0, 0, 0, 0, 0, 0, 0, 1, 0, 0, 0, 0, 0]\nclass = Purples", fillcolor="#3978e5ff"] ;
61 -> 63 ;
64 [label="entropy = 0.0\nsamples = 2\nvalue = [0, 0, 0, 0, 0, 0, 0, 2, 0, 0, 0, 0, 0]\nclass = Purples", fillcolor="#3978e5ff"] ;
58 -> 64 ;
65 [label="entropy = 0.0\nsamples = 10\nvalue = [0, 0, 0, 0, 0, 0, 0, 10, 0, 0, 0, 0, 0]\nclass = Purples", fillcolor="#3978e5ff"] ;
57 -> 65 ;
66 [label="Yearly_ExpensesK <= 0.964\nentropy = 0.129\nsamples = 131\nvalue = [0, 0, 0, 0, 0, 1, 0, 129, 0, 0, 0, 1, 0]\nclass = Purples", fillcolor="#3978e5fb"] ;
52 -> 66 ;
67 [label="Avg_education_importance <= -0.096\nentropy = 0.066\nsamples = 128\nvalue = [0, 0, 0, 0, 0, 0, 0, 127, 0, 0, 0, 1, 0]\nclass = Purples", fillcolor="#3978e5fd"] ;
66 -> 67 ;
68 [label="Weighted_education_rank <= -0.789\nentropy = 0.811\nsamples = 4\nvalue = [0, 0, 0, 0, 0, 0, 0, 3, 0, 0, 0, 1, 0]\nclass = Purples", fillcolor="#3978e5aa"] ;
67 -> 68 ;
69 [label="entropy = 0.0\nsamples = 1\nvalue = [0, 0, 0, 0, 0, 0, 0, 0, 0, 0, 0, 1, 0]\nclass = Whites", fillcolor="#e53992ff"] ;
68 -> 69 ;
70 [label="entropy = 0.0\nsamples = 3\nvalue = [0, 0, 0, 0, 0, 0, 0, 3, 0, 0, 0, 0, 0]\nclass = Purples", fillcolor="#3978e5ff"] ;
68 -> 70 ;
71 [label="entropy = 0.0\nsamples = 124\nvalue = [0, 0, 0, 0, 0, 0, 0, 124, 0, 0, 0, 0, 0]\nclass = Purples", fillcolor="#3978e5ff"] ;
67 -> 71 ;
72 [label="Avg_Residancy_Altitude <= -0.83\nentropy = 0.918\nsamples = 3\nvalue = [0, 0, 0, 0, 0, 1, 0, 2, 0, 0, 0, 0, 0]\nclass = Purples", fillcolor="#3978e57f"] ;
66 -> 72 ;
73 [label="entropy = 0.0\nsamples = 2\nvalue = [0, 0, 0, 0, 0, 0, 0, 2, 0, 0, 0, 0, 0]\nclass = Purples", fillcolor="#3978e5ff"] ;
72 -> 73 ;
74 [label="entropy = 0.0\nsamples = 1\nvalue = [0, 0, 0, 0, 0, 1, 0, 0, 0, 0, 0, 0, 0]\nclass = Oranges", fillcolor="#39e5b4ff"] ;
72 -> 74 ;
75 [label="Weighted_education_rank <= -0.661\nentropy = 1.614\nsamples = 108\nvalue = [0, 1, 0, 59, 1, 10, 0, 34, 1, 0, 0, 2, 0]\nclass = Greys", fillcolor="#5be53956"] ;
5 -> 75 ;
76 [label="Most_Important_Issue <= 2.5\nentropy = 1.285\nsamples = 97\nvalue = [0, 1, 0, 59, 0, 1, 0, 33, 1, 0, 0, 2, 0]\nclass = Greys", fillcolor="#5be53968"] ;
75 -> 76 ;
77 [label="Most_Important_Issue <= 1.0\nentropy = 0.669\nsamples = 16\nvalue = [0, 1, 0, 0, 0, 0, 0, 14, 0, 0, 0, 1, 0]\nclass = Purples", fillcolor="#3978e5dd"] ;
76 -> 77 ;
78 [label="Weighted_education_rank <= -1.157\nentropy = 1.585\nsamples = 3\nvalue = [0, 1, 0, 0, 0, 0, 0, 1, 0, 0, 0, 1, 0]\nclass = Browns", fillcolor="#e5ce3900"] ;
77 -> 78 ;
79 [label="entropy = 0.0\nsamples = 1\nvalue = [0, 1, 0, 0, 0, 0, 0, 0, 0, 0, 0, 0, 0]\nclass = Browns", fillcolor="#e5ce39ff"] ;
78 -> 79 ;
80 [label="entropy = 1.0\nsamples = 2\nvalue = [0, 0, 0, 0, 0, 0, 0, 1, 0, 0, 0, 1, 0]\nclass = Purples", fillcolor="#3978e500"] ;
78 -> 80 ;
81 [label="entropy = 0.0\nsamples = 13\nvalue = [0, 0, 0, 0, 0, 0, 0, 13, 0, 0, 0, 0, 0]\nclass = Purples", fillcolor="#3978e5ff"] ;
77 -> 81 ;
82 [label="Number_of_valued_Kneset_members <= -0.471\nentropy = 1.059\nsamples = 81\nvalue = [0, 0, 0, 59, 0, 1, 0, 19, 1, 0, 0, 1, 0]\nclass = Greys", fillcolor="#5be539a5"] ;
76 -> 82 ;
83 [label="Avg_Residancy_Altitude <= -0.67\nentropy = 0.674\nsamples = 57\nvalue = [0, 0, 0, 51, 0, 1, 0, 3, 1, 0, 0, 1, 0]\nclass = Greys", fillcolor="#5be539e3"] ;
82 -> 83 ;
84 [label="Avg_Residancy_Altitude <= -0.735\nentropy = 2.322\nsamples = 5\nvalue = [0, 0, 0, 1, 0, 1, 0, 1, 1, 0, 0, 1, 0]\nclass = Greys", fillcolor="#5be53900"] ;
83 -> 84 ;
85 [label="entropy = 1.0\nsamples = 2\nvalue = [0, 0, 0, 0, 0, 0, 0, 1, 0, 0, 0, 1, 0]\nclass = Purples", fillcolor="#3978e500"] ;
84 -> 85 ;
86 [label="Number_of_valued_Kneset_members <= -2.082\nentropy = 1.585\nsamples = 3\nvalue = [0, 0, 0, 1, 0, 1, 0, 0, 1, 0, 0, 0, 0]\nclass = Greys", fillcolor="#5be53900"] ;
84 -> 86 ;
87 [label="entropy = 0.0\nsamples = 1\nvalue = [0, 0, 0, 0, 0, 1, 0, 0, 0, 0, 0, 0, 0]\nclass = Oranges", fillcolor="#39e5b4ff"] ;
86 -> 87 ;
88 [label="entropy = 1.0\nsamples = 2\nvalue = [0, 0, 0, 1, 0, 0, 0, 0, 1, 0, 0, 0, 0]\nclass = Greys", fillcolor="#5be53900"] ;
86 -> 88 ;
89 [label="Most_Important_Issue <= 6.0\nentropy = 0.235\nsamples = 52\nvalue = [0, 0, 0, 50, 0, 0, 0, 2, 0, 0, 0, 0, 0]\nclass = Greys", fillcolor="#5be539f5"] ;
83 -> 89 ;
90 [label="Avg_education_importance <= 0.037\nentropy = 0.139\nsamples = 51\nvalue = [0, 0, 0, 50, 0, 0, 0, 1, 0, 0, 0, 0, 0]\nclass = Greys", fillcolor="#5be539fa"] ;
89 -> 90 ;
91 [label="entropy = 0.0\nsamples = 48\nvalue = [0, 0, 0, 48, 0, 0, 0, 0, 0, 0, 0, 0, 0]\nclass = Greys", fillcolor="#5be539ff"] ;
90 -> 91 ;
92 [label="Avg_environmental_importance <= -0.148\nentropy = 0.918\nsamples = 3\nvalue = [0, 0, 0, 2, 0, 0, 0, 1, 0, 0, 0, 0, 0]\nclass = Greys", fillcolor="#5be5397f"] ;
90 -> 92 ;
93 [label="entropy = 0.0\nsamples = 1\nvalue = [0, 0, 0, 0, 0, 0, 0, 1, 0, 0, 0, 0, 0]\nclass = Purples", fillcolor="#3978e5ff"] ;
92 -> 93 ;
94 [label="entropy = 0.0\nsamples = 2\nvalue = [0, 0, 0, 2, 0, 0, 0, 0, 0, 0, 0, 0, 0]\nclass = Greys", fillcolor="#5be539ff"] ;
92 -> 94 ;
95 [label="entropy = 0.0\nsamples = 1\nvalue = [0, 0, 0, 0, 0, 0, 0, 1, 0, 0, 0, 0, 0]\nclass = Purples", fillcolor="#3978e5ff"] ;
89 -> 95 ;
96 [label="Most_Important_Issue <= 3.5\nentropy = 0.918\nsamples = 24\nvalue = [0, 0, 0, 8, 0, 0, 0, 16, 0, 0, 0, 0, 0]\nclass = Purples", fillcolor="#3978e57f"] ;
82 -> 96 ;
97 [label="entropy = 0.0\nsamples = 7\nvalue = [0, 0, 0, 7, 0, 0, 0, 0, 0, 0, 0, 0, 0]\nclass = Greys", fillcolor="#5be539ff"] ;
96 -> 97 ;
98 [label="Avg_monthly_expense_on_pets_or_plants <= -1.055\nentropy = 0.323\nsamples = 17\nvalue = [0, 0, 0, 1, 0, 0, 0, 16, 0, 0, 0, 0, 0]\nclass = Purples", fillcolor="#3978e5ef"] ;
96 -> 98 ;
99 [label="entropy = 0.0\nsamples = 1\nvalue = [0, 0, 0, 1, 0, 0, 0, 0, 0, 0, 0, 0, 0]\nclass = Greys", fillcolor="#5be539ff"] ;
98 -> 99 ;
100 [label="entropy = 0.0\nsamples = 16\nvalue = [0, 0, 0, 0, 0, 0, 0, 16, 0, 0, 0, 0, 0]\nclass = Purples", fillcolor="#3978e5ff"] ;
98 -> 100 ;
101 [label="Most_Important_Issue <= 3.5\nentropy = 0.866\nsamples = 11\nvalue = [0, 0, 0, 0, 1, 9, 0, 1, 0, 0, 0, 0, 0]\nclass = Oranges", fillcolor="#39e5b4cc"] ;
75 -> 101 ;
102 [label="entropy = 1.0\nsamples = 2\nvalue = [0, 0, 0, 0, 1, 0, 0, 1, 0, 0, 0, 0, 0]\nclass = Khakis", fillcolor="#39e56400"] ;
101 -> 102 ;
103 [label="entropy = 0.0\nsamples = 9\nvalue = [0, 0, 0, 0, 0, 9, 0, 0, 0, 0, 0, 0, 0]\nclass = Oranges", fillcolor="#39e5b4ff"] ;
101 -> 103 ;
104 [label="Avg_government_satisfaction <= 0.024\nentropy = 2.0\nsamples = 682\nvalue = [3, 234, 0, 214, 0, 9, 3, 29, 2, 0, 0, 181, 7]\nclass = Browns", fillcolor="#e5ce390b"] ;
4 -> 104 ;
105 [label="Avg_environmental_importance <= 0.078\nentropy = 1.874\nsamples = 550\nvalue = [0, 231, 0, 97, 0, 9, 0, 29, 2, 0, 0, 180, 2]\nclass = Browns", fillcolor="#e5ce3923"] ;
104 -> 105 ;
106 [label="Weighted_education_rank <= -0.933\nentropy = 1.706\nsamples = 453\nvalue = [0, 231, 0, 45, 0, 6, 0, 29, 0, 0, 0, 141, 1]\nclass = Browns", fillcolor="#e5ce394a"] ;
105 -> 106 ;
107 [label="Avg_education_importance <= -0.017\nentropy = 1.425\nsamples = 350\nvalue = [0, 215, 0, 24, 0, 0, 0, 18, 0, 0, 0, 93, 0]\nclass = Browns", fillcolor="#e5ce3979"] ;
106 -> 107 ;
108 [label="Most_Important_Issue <= 2.5\nentropy = 1.169\nsamples = 268\nvalue = [0, 201, 0, 20, 0, 0, 0, 11, 0, 0, 0, 36, 0]\nclass = Browns", fillcolor="#e5ce39b5"] ;
107 -> 108 ;
109 [label="Most_Important_Issue <= 1.5\nentropy = 0.901\nsamples = 147\nvalue = [0, 117, 0, 0, 0, 0, 0, 8, 0, 0, 0, 22, 0]\nclass = Browns", fillcolor="#e5ce39c2"] ;
108 -> 109 ;
110 [label="Number_of_valued_Kneset_members <= -0.471\nentropy = 0.611\nsamples = 93\nvalue = [0, 79, 0, 0, 0, 0, 0, 0, 0, 0, 0, 14, 0]\nclass = Browns", fillcolor="#e5ce39d2"] ;
109 -> 110 ;
111 [label="Avg_education_importance <= -0.048\nentropy = 0.273\nsamples = 64\nvalue = [0, 61, 0, 0, 0, 0, 0, 0, 0, 0, 0, 3, 0]\nclass = Browns", fillcolor="#e5ce39f2"] ;
110 -> 111 ;
112 [label="entropy = 0.0\nsamples = 50\nvalue = [0, 50, 0, 0, 0, 0, 0, 0, 0, 0, 0, 0, 0]\nclass = Browns", fillcolor="#e5ce39ff"] ;
111 -> 112 ;
113 [label="Most_Important_Issue <= 0.5\nentropy = 0.75\nsamples = 14\nvalue = [0, 11, 0, 0, 0, 0, 0, 0, 0, 0, 0, 3, 0]\nclass = Browns", fillcolor="#e5ce39b9"] ;
111 -> 113 ;
114 [label="entropy = 0.0\nsamples = 6\nvalue = [0, 6, 0, 0, 0, 0, 0, 0, 0, 0, 0, 0, 0]\nclass = Browns", fillcolor="#e5ce39ff"] ;
113 -> 114 ;
115 [label="Avg_education_importance <= -0.036\nentropy = 0.954\nsamples = 8\nvalue = [0, 5, 0, 0, 0, 0, 0, 0, 0, 0, 0, 3, 0]\nclass = Browns", fillcolor="#e5ce3966"] ;
113 -> 115 ;
116 [label="entropy = 0.0\nsamples = 2\nvalue = [0, 0, 0, 0, 0, 0, 0, 0, 0, 0, 0, 2, 0]\nclass = Whites", fillcolor="#e53992ff"] ;
115 -> 116 ;
117 [label="Avg_Residancy_Altitude <= -0.879\nentropy = 0.65\nsamples = 6\nvalue = [0, 5, 0, 0, 0, 0, 0, 0, 0, 0, 0, 1, 0]\nclass = Browns", fillcolor="#e5ce39cc"] ;
115 -> 117 ;
118 [label="entropy = 0.0\nsamples = 1\nvalue = [0, 0, 0, 0, 0, 0, 0, 0, 0, 0, 0, 1, 0]\nclass = Whites", fillcolor="#e53992ff"] ;
117 -> 118 ;
119 [label="entropy = 0.0\nsamples = 5\nvalue = [0, 5, 0, 0, 0, 0, 0, 0, 0, 0, 0, 0, 0]\nclass = Browns", fillcolor="#e5ce39ff"] ;
117 -> 119 ;
120 [label="Most_Important_Issue <= 0.5\nentropy = 0.958\nsamples = 29\nvalue = [0, 18, 0, 0, 0, 0, 0, 0, 0, 0, 0, 11, 0]\nclass = Browns", fillcolor="#e5ce3963"] ;
110 -> 120 ;
121 [label="Avg_education_importance <= -0.092\nentropy = 0.855\nsamples = 25\nvalue = [0, 18, 0, 0, 0, 0, 0, 0, 0, 0, 0, 7, 0]\nclass = Browns", fillcolor="#e5ce399c"] ;
120 -> 121 ;
122 [label="entropy = 0.0\nsamples = 8\nvalue = [0, 8, 0, 0, 0, 0, 0, 0, 0, 0, 0, 0, 0]\nclass = Browns", fillcolor="#e5ce39ff"] ;
121 -> 122 ;
123 [label="Avg_environmental_importance <= 0.026\nentropy = 0.977\nsamples = 17\nvalue = [0, 10, 0, 0, 0, 0, 0, 0, 0, 0, 0, 7, 0]\nclass = Browns", fillcolor="#e5ce394d"] ;
121 -> 123 ;
124 [label="Yearly_ExpensesK <= 0.693\nentropy = 0.996\nsamples = 13\nvalue = [0, 6, 0, 0, 0, 0, 0, 0, 0, 0, 0, 7, 0]\nclass = Whites", fillcolor="#e5399224"] ;
123 -> 124 ;
125 [label="Avg_monthly_expense_on_pets_or_plants <= -1.102\nentropy = 0.881\nsamples = 10\nvalue = [0, 3, 0, 0, 0, 0, 0, 0, 0, 0, 0, 7, 0]\nclass = Whites", fillcolor="#e5399292"] ;
124 -> 125 ;
126 [label="entropy = 0.0\nsamples = 1\nvalue = [0, 1, 0, 0, 0, 0, 0, 0, 0, 0, 0, 0, 0]\nclass = Browns", fillcolor="#e5ce39ff"] ;
125 -> 126 ;
127 [label="Avg_Residancy_Altitude <= -0.682\nentropy = 0.764\nsamples = 9\nvalue = [0, 2, 0, 0, 0, 0, 0, 0, 0, 0, 0, 7, 0]\nclass = Whites", fillcolor="#e53992b6"] ;
125 -> 127 ;
128 [label="Yearly_ExpensesK <= 0.587\nentropy = 1.0\nsamples = 4\nvalue = [0, 2, 0, 0, 0, 0, 0, 0, 0, 0, 0, 2, 0]\nclass = Browns", fillcolor="#e5ce3900"] ;
127 -> 128 ;
129 [label="entropy = 0.0\nsamples = 2\nvalue = [0, 2, 0, 0, 0, 0, 0, 0, 0, 0, 0, 0, 0]\nclass = Browns", fillcolor="#e5ce39ff"] ;
128 -> 129 ;
130 [label="entropy = 0.0\nsamples = 2\nvalue = [0, 0, 0, 0, 0, 0, 0, 0, 0, 0, 0, 2, 0]\nclass = Whites", fillcolor="#e53992ff"] ;
128 -> 130 ;
131 [label="entropy = 0.0\nsamples = 5\nvalue = [0, 0, 0, 0, 0, 0, 0, 0, 0, 0, 0, 5, 0]\nclass = Whites", fillcolor="#e53992ff"] ;
127 -> 131 ;
132 [label="entropy = 0.0\nsamples = 3\nvalue = [0, 3, 0, 0, 0, 0, 0, 0, 0, 0, 0, 0, 0]\nclass = Browns", fillcolor="#e5ce39ff"] ;
124 -> 132 ;
133 [label="entropy = 0.0\nsamples = 4\nvalue = [0, 4, 0, 0, 0, 0, 0, 0, 0, 0, 0, 0, 0]\nclass = Browns", fillcolor="#e5ce39ff"] ;
123 -> 133 ;
134 [label="entropy = 0.0\nsamples = 4\nvalue = [0, 0, 0, 0, 0, 0, 0, 0, 0, 0, 0, 4, 0]\nclass = Whites", fillcolor="#e53992ff"] ;
120 -> 134 ;
135 [label="Number_of_valued_Kneset_members <= -1.223\nentropy = 1.173\nsamples = 54\nvalue = [0, 38, 0, 0, 0, 0, 0, 8, 0, 0, 0, 8, 0]\nclass = Browns", fillcolor="#e5ce39a6"] ;
109 -> 135 ;
136 [label="Yearly_ExpensesK <= 0.586\nentropy = 0.667\nsamples = 46\nvalue = [0, 38, 0, 0, 0, 0, 0, 0, 0, 0, 0, 8, 0]\nclass = Browns", fillcolor="#e5ce39c9"] ;
135 -> 136 ;
137 [label="Number_of_valued_Kneset_members <= -1.599\nentropy = 0.187\nsamples = 35\nvalue = [0, 34, 0, 0, 0, 0, 0, 0, 0, 0, 0, 1, 0]\nclass = Browns", fillcolor="#e5ce39f8"] ;
136 -> 137 ;
138 [label="entropy = 0.0\nsamples = 34\nvalue = [0, 34, 0, 0, 0, 0, 0, 0, 0, 0, 0, 0, 0]\nclass = Browns", fillcolor="#e5ce39ff"] ;
137 -> 138 ;
139 [label="entropy = 0.0\nsamples = 1\nvalue = [0, 0, 0, 0, 0, 0, 0, 0, 0, 0, 0, 1, 0]\nclass = Whites", fillcolor="#e53992ff"] ;
137 -> 139 ;
140 [label="Avg_government_satisfaction <= -0.106\nentropy = 0.946\nsamples = 11\nvalue = [0, 4, 0, 0, 0, 0, 0, 0, 0, 0, 0, 7, 0]\nclass = Whites", fillcolor="#e539926d"] ;
136 -> 140 ;
141 [label="entropy = 0.0\nsamples = 6\nvalue = [0, 0, 0, 0, 0, 0, 0, 0, 0, 0, 0, 6, 0]\nclass = Whites", fillcolor="#e53992ff"] ;
140 -> 141 ;
142 [label="Avg_monthly_expense_on_pets_or_plants <= -0.581\nentropy = 0.722\nsamples = 5\nvalue = [0, 4, 0, 0, 0, 0, 0, 0, 0, 0, 0, 1, 0]\nclass = Browns", fillcolor="#e5ce39bf"] ;
140 -> 142 ;
143 [label="entropy = 0.0\nsamples = 1\nvalue = [0, 0, 0, 0, 0, 0, 0, 0, 0, 0, 0, 1, 0]\nclass = Whites", fillcolor="#e53992ff"] ;
142 -> 143 ;
144 [label="entropy = 0.0\nsamples = 4\nvalue = [0, 4, 0, 0, 0, 0, 0, 0, 0, 0, 0, 0, 0]\nclass = Browns", fillcolor="#e5ce39ff"] ;
142 -> 144 ;
145 [label="entropy = 0.0\nsamples = 8\nvalue = [0, 0, 0, 0, 0, 0, 0, 8, 0, 0, 0, 0, 0]\nclass = Purples", fillcolor="#3978e5ff"] ;
135 -> 145 ;
146 [label="Most_Important_Issue <= 3.5\nentropy = 1.287\nsamples = 121\nvalue = [0, 84, 0, 20, 0, 0, 0, 3, 0, 0, 0, 14, 0]\nclass = Browns", fillcolor="#e5ce39a2"] ;
108 -> 146 ;
147 [label="entropy = 0.0\nsamples = 11\nvalue = [0, 0, 0, 11, 0, 0, 0, 0, 0, 0, 0, 0, 0]\nclass = Greys", fillcolor="#5be539ff"] ;
146 -> 147 ;
148 [label="Number_of_valued_Kneset_members <= -0.847\nentropy = 1.113\nsamples = 110\nvalue = [0, 84, 0, 9, 0, 0, 0, 3, 0, 0, 0, 14, 0]\nclass = Browns", fillcolor="#e5ce39ba"] ;
146 -> 148 ;
149 [label="Avg_environmental_importance <= -0.011\nentropy = 0.817\nsamples = 100\nvalue = [0, 83, 0, 6, 0, 0, 0, 0, 0, 0, 0, 11, 0]\nclass = Browns", fillcolor="#e5ce39ce"] ;
148 -> 149 ;
150 [label="Number_of_valued_Kneset_members <= -1.223\nentropy = 0.904\nsamples = 51\nvalue = [0, 41, 0, 6, 0, 0, 0, 0, 0, 0, 0, 4, 0]\nclass = Browns", fillcolor="#e5ce39c6"] ;
149 -> 150 ;
151 [label="Most_Important_Issue <= 6.0\nentropy = 0.503\nsamples = 36\nvalue = [0, 32, 0, 4, 0, 0, 0, 0, 0, 0, 0, 0, 0]\nclass = Browns", fillcolor="#e5ce39df"] ;
150 -> 151 ;
152 [label="Most_Important_Issue <= 4.5\nentropy = 0.764\nsamples = 18\nvalue = [0, 14, 0, 4, 0, 0, 0, 0, 0, 0, 0, 0, 0]\nclass = Browns", fillcolor="#e5ce39b6"] ;
151 -> 152 ;
153 [label="entropy = 0.0\nsamples = 14\nvalue = [0, 14, 0, 0, 0, 0, 0, 0, 0, 0, 0, 0, 0]\nclass = Browns", fillcolor="#e5ce39ff"] ;
152 -> 153 ;
154 [label="entropy = 0.0\nsamples = 4\nvalue = [0, 0, 0, 4, 0, 0, 0, 0, 0, 0, 0, 0, 0]\nclass = Greys", fillcolor="#5be539ff"] ;
152 -> 154 ;
155 [label="entropy = 0.0\nsamples = 18\nvalue = [0, 18, 0, 0, 0, 0, 0, 0, 0, 0, 0, 0, 0]\nclass = Browns", fillcolor="#e5ce39ff"] ;
151 -> 155 ;
156 [label="Most_Important_Issue <= 4.5\nentropy = 1.338\nsamples = 15\nvalue = [0, 9, 0, 2, 0, 0, 0, 0, 0, 0, 0, 4, 0]\nclass = Browns", fillcolor="#e5ce3974"] ;
150 -> 156 ;
157 [label="Avg_education_importance <= -0.066\nentropy = 0.811\nsamples = 12\nvalue = [0, 9, 0, 0, 0, 0, 0, 0, 0, 0, 0, 3, 0]\nclass = Browns", fillcolor="#e5ce39aa"] ;
156 -> 157 ;
158 [label="entropy = 0.0\nsamples = 7\nvalue = [0, 7, 0, 0, 0, 0, 0, 0, 0, 0, 0, 0, 0]\nclass = Browns", fillcolor="#e5ce39ff"] ;
157 -> 158 ;
159 [label="Avg_education_importance <= -0.055\nentropy = 0.971\nsamples = 5\nvalue = [0, 2, 0, 0, 0, 0, 0, 0, 0, 0, 0, 3, 0]\nclass = Whites", fillcolor="#e5399255"] ;
157 -> 159 ;
160 [label="entropy = 0.0\nsamples = 2\nvalue = [0, 0, 0, 0, 0, 0, 0, 0, 0, 0, 0, 2, 0]\nclass = Whites", fillcolor="#e53992ff"] ;
159 -> 160 ;
161 [label="Avg_environmental_importance <= -0.044\nentropy = 0.918\nsamples = 3\nvalue = [0, 2, 0, 0, 0, 0, 0, 0, 0, 0, 0, 1, 0]\nclass = Browns", fillcolor="#e5ce397f"] ;
159 -> 161 ;
162 [label="entropy = 0.0\nsamples = 1\nvalue = [0, 0, 0, 0, 0, 0, 0, 0, 0, 0, 0, 1, 0]\nclass = Whites", fillcolor="#e53992ff"] ;
161 -> 162 ;
163 [label="entropy = 0.0\nsamples = 2\nvalue = [0, 2, 0, 0, 0, 0, 0, 0, 0, 0, 0, 0, 0]\nclass = Browns", fillcolor="#e5ce39ff"] ;
161 -> 163 ;
164 [label="Avg_environmental_importance <= -0.029\nentropy = 0.918\nsamples = 3\nvalue = [0, 0, 0, 2, 0, 0, 0, 0, 0, 0, 0, 1, 0]\nclass = Greys", fillcolor="#5be5397f"] ;
156 -> 164 ;
165 [label="entropy = 0.0\nsamples = 2\nvalue = [0, 0, 0, 2, 0, 0, 0, 0, 0, 0, 0, 0, 0]\nclass = Greys", fillcolor="#5be539ff"] ;
164 -> 165 ;
166 [label="entropy = 0.0\nsamples = 1\nvalue = [0, 0, 0, 0, 0, 0, 0, 0, 0, 0, 0, 1, 0]\nclass = Whites", fillcolor="#e53992ff"] ;
164 -> 166 ;
167 [label="Avg_government_satisfaction <= -0.153\nentropy = 0.592\nsamples = 49\nvalue = [0, 42, 0, 0, 0, 0, 0, 0, 0, 0, 0, 7, 0]\nclass = Browns", fillcolor="#e5ce39d4"] ;
149 -> 167 ;
168 [label="Avg_monthly_expense_on_pets_or_plants <= 0.422\nentropy = 0.971\nsamples = 5\nvalue = [0, 2, 0, 0, 0, 0, 0, 0, 0, 0, 0, 3, 0]\nclass = Whites", fillcolor="#e5399255"] ;
167 -> 168 ;
169 [label="entropy = 0.0\nsamples = 3\nvalue = [0, 0, 0, 0, 0, 0, 0, 0, 0, 0, 0, 3, 0]\nclass = Whites", fillcolor="#e53992ff"] ;
168 -> 169 ;
170 [label="entropy = 0.0\nsamples = 2\nvalue = [0, 2, 0, 0, 0, 0, 0, 0, 0, 0, 0, 0, 0]\nclass = Browns", fillcolor="#e5ce39ff"] ;
168 -> 170 ;
171 [label="Weighted_education_rank <= -1.167\nentropy = 0.439\nsamples = 44\nvalue = [0, 40, 0, 0, 0, 0, 0, 0, 0, 0, 0, 4, 0]\nclass = Browns", fillcolor="#e5ce39e6"] ;
167 -> 171 ;
172 [label="Avg_environmental_importance <= 0.001\nentropy = 0.863\nsamples = 14\nvalue = [0, 10, 0, 0, 0, 0, 0, 0, 0, 0, 0, 4, 0]\nclass = Browns", fillcolor="#e5ce3999"] ;
171 -> 172 ;
173 [label="Avg_environmental_importance <= -0.007\nentropy = 0.811\nsamples = 4\nvalue = [0, 1, 0, 0, 0, 0, 0, 0, 0, 0, 0, 3, 0]\nclass = Whites", fillcolor="#e53992aa"] ;
172 -> 173 ;
174 [label="entropy = 0.0\nsamples = 1\nvalue = [0, 1, 0, 0, 0, 0, 0, 0, 0, 0, 0, 0, 0]\nclass = Browns", fillcolor="#e5ce39ff"] ;
173 -> 174 ;
175 [label="entropy = 0.0\nsamples = 3\nvalue = [0, 0, 0, 0, 0, 0, 0, 0, 0, 0, 0, 3, 0]\nclass = Whites", fillcolor="#e53992ff"] ;
173 -> 175 ;
176 [label="Avg_monthly_expense_on_pets_or_plants <= 0.913\nentropy = 0.469\nsamples = 10\nvalue = [0, 9, 0, 0, 0, 0, 0, 0, 0, 0, 0, 1, 0]\nclass = Browns", fillcolor="#e5ce39e3"] ;
172 -> 176 ;
177 [label="entropy = 0.0\nsamples = 9\nvalue = [0, 9, 0, 0, 0, 0, 0, 0, 0, 0, 0, 0, 0]\nclass = Browns", fillcolor="#e5ce39ff"] ;
176 -> 177 ;
178 [label="entropy = 0.0\nsamples = 1\nvalue = [0, 0, 0, 0, 0, 0, 0, 0, 0, 0, 0, 1, 0]\nclass = Whites", fillcolor="#e53992ff"] ;
176 -> 178 ;
179 [label="entropy = 0.0\nsamples = 30\nvalue = [0, 30, 0, 0, 0, 0, 0, 0, 0, 0, 0, 0, 0]\nclass = Browns", fillcolor="#e5ce39ff"] ;
171 -> 179 ;
180 [label="Most_Important_Issue <= 4.5\nentropy = 1.895\nsamples = 10\nvalue = [0, 1, 0, 3, 0, 0, 0, 3, 0, 0, 0, 3, 0]\nclass = Greys", fillcolor="#5be53900"] ;
148 -> 180 ;
181 [label="Number_of_valued_Kneset_members <= -0.471\nentropy = 0.971\nsamples = 5\nvalue = [0, 0, 0, 0, 0, 0, 0, 2, 0, 0, 0, 3, 0]\nclass = Whites", fillcolor="#e5399255"] ;
180 -> 181 ;
182 [label="entropy = 0.0\nsamples = 3\nvalue = [0, 0, 0, 0, 0, 0, 0, 0, 0, 0, 0, 3, 0]\nclass = Whites", fillcolor="#e53992ff"] ;
181 -> 182 ;
183 [label="entropy = 0.0\nsamples = 2\nvalue = [0, 0, 0, 0, 0, 0, 0, 2, 0, 0, 0, 0, 0]\nclass = Purples", fillcolor="#3978e5ff"] ;
181 -> 183 ;
184 [label="Most_Important_Issue <= 6.0\nentropy = 1.371\nsamples = 5\nvalue = [0, 1, 0, 3, 0, 0, 0, 1, 0, 0, 0, 0, 0]\nclass = Greys", fillcolor="#5be5397f"] ;
180 -> 184 ;
185 [label="entropy = 0.0\nsamples = 3\nvalue = [0, 0, 0, 3, 0, 0, 0, 0, 0, 0, 0, 0, 0]\nclass = Greys", fillcolor="#5be539ff"] ;
184 -> 185 ;
186 [label="entropy = 1.0\nsamples = 2\nvalue = [0, 1, 0, 0, 0, 0, 0, 1, 0, 0, 0, 0, 0]\nclass = Browns", fillcolor="#e5ce3900"] ;
184 -> 186 ;
187 [label="Avg_Residancy_Altitude <= 0.014\nentropy = 1.316\nsamples = 82\nvalue = [0, 14, 0, 4, 0, 0, 0, 7, 0, 0, 0, 57, 0]\nclass = Whites", fillcolor="#e53992a1"] ;
107 -> 187 ;
188 [label="Avg_education_importance <= 0.012\nentropy = 1.147\nsamples = 73\nvalue = [0, 9, 0, 2, 0, 0, 0, 7, 0, 0, 0, 55, 0]\nclass = Whites", fillcolor="#e53992b7"] ;
187 -> 188 ;
189 [label="Avg_education_importance <= 0.009\nentropy = 1.199\nsamples = 40\nvalue = [0, 9, 0, 0, 0, 0, 0, 4, 0, 0, 0, 27, 0]\nclass = Whites", fillcolor="#e5399294"] ;
188 -> 189 ;
190 [label="Avg_Residancy_Altitude <= -0.065\nentropy = 1.08\nsamples = 37\nvalue = [0, 7, 0, 0, 0, 0, 0, 3, 0, 0, 0, 27, 0]\nclass = Whites", fillcolor="#e53992aa"] ;
189 -> 190 ;
191 [label="Avg_government_satisfaction <= -0.134\nentropy = 0.915\nsamples = 34\nvalue = [0, 7, 0, 0, 0, 0, 0, 1, 0, 0, 0, 26, 0]\nclass = Whites", fillcolor="#e53992b3"] ;
190 -> 191 ;
192 [label="Avg_monthly_expense_on_pets_or_plants <= -0.959\nentropy = 0.544\nsamples = 8\nvalue = [0, 0, 0, 0, 0, 0, 0, 1, 0, 0, 0, 7, 0]\nclass = Whites", fillcolor="#e53992db"] ;
191 -> 192 ;
193 [label="entropy = 0.0\nsamples = 1\nvalue = [0, 0, 0, 0, 0, 0, 0, 1, 0, 0, 0, 0, 0]\nclass = Purples", fillcolor="#3978e5ff"] ;
192 -> 193 ;
194 [label="entropy = 0.0\nsamples = 7\nvalue = [0, 0, 0, 0, 0, 0, 0, 0, 0, 0, 0, 7, 0]\nclass = Whites", fillcolor="#e53992ff"] ;
192 -> 194 ;
195 [label="Weighted_education_rank <= -1.094\nentropy = 0.84\nsamples = 26\nvalue = [0, 7, 0, 0, 0, 0, 0, 0, 0, 0, 0, 19, 0]\nclass = Whites", fillcolor="#e53992a1"] ;
191 -> 195 ;
196 [label="Avg_Residancy_Altitude <= -0.464\nentropy = 0.575\nsamples = 22\nvalue = [0, 3, 0, 0, 0, 0, 0, 0, 0, 0, 0, 19, 0]\nclass = Whites", fillcolor="#e53992d7"] ;
195 -> 196 ;
197 [label="entropy = 0.0\nsamples = 11\nvalue = [0, 0, 0, 0, 0, 0, 0, 0, 0, 0, 0, 11, 0]\nclass = Whites", fillcolor="#e53992ff"] ;
196 -> 197 ;
198 [label="Yearly_ExpensesK <= -0.05\nentropy = 0.845\nsamples = 11\nvalue = [0, 3, 0, 0, 0, 0, 0, 0, 0, 0, 0, 8, 0]\nclass = Whites", fillcolor="#e539929f"] ;
196 -> 198 ;
199 [label="Weighted_education_rank <= -1.27\nentropy = 0.503\nsamples = 9\nvalue = [0, 1, 0, 0, 0, 0, 0, 0, 0, 0, 0, 8, 0]\nclass = Whites", fillcolor="#e53992df"] ;
198 -> 199 ;
200 [label="entropy = 1.0\nsamples = 2\nvalue = [0, 1, 0, 0, 0, 0, 0, 0, 0, 0, 0, 1, 0]\nclass = Browns", fillcolor="#e5ce3900"] ;
199 -> 200 ;
201 [label="entropy = 0.0\nsamples = 7\nvalue = [0, 0, 0, 0, 0, 0, 0, 0, 0, 0, 0, 7, 0]\nclass = Whites", fillcolor="#e53992ff"] ;
199 -> 201 ;
202 [label="entropy = 0.0\nsamples = 2\nvalue = [0, 2, 0, 0, 0, 0, 0, 0, 0, 0, 0, 0, 0]\nclass = Browns", fillcolor="#e5ce39ff"] ;
198 -> 202 ;
203 [label="entropy = 0.0\nsamples = 4\nvalue = [0, 4, 0, 0, 0, 0, 0, 0, 0, 0, 0, 0, 0]\nclass = Browns", fillcolor="#e5ce39ff"] ;
195 -> 203 ;
204 [label="Weighted_education_rank <= -1.118\nentropy = 0.918\nsamples = 3\nvalue = [0, 0, 0, 0, 0, 0, 0, 2, 0, 0, 0, 1, 0]\nclass = Purples", fillcolor="#3978e57f"] ;
190 -> 204 ;
205 [label="entropy = 0.0\nsamples = 2\nvalue = [0, 0, 0, 0, 0, 0, 0, 2, 0, 0, 0, 0, 0]\nclass = Purples", fillcolor="#3978e5ff"] ;
204 -> 205 ;
206 [label="entropy = 0.0\nsamples = 1\nvalue = [0, 0, 0, 0, 0, 0, 0, 0, 0, 0, 0, 1, 0]\nclass = Whites", fillcolor="#e53992ff"] ;
204 -> 206 ;
207 [label="Avg_monthly_expense_on_pets_or_plants <= -0.349\nentropy = 0.918\nsamples = 3\nvalue = [0, 2, 0, 0, 0, 0, 0, 1, 0, 0, 0, 0, 0]\nclass = Browns", fillcolor="#e5ce397f"] ;
189 -> 207 ;
208 [label="entropy = 0.0\nsamples = 1\nvalue = [0, 0, 0, 0, 0, 0, 0, 1, 0, 0, 0, 0, 0]\nclass = Purples", fillcolor="#3978e5ff"] ;
207 -> 208 ;
209 [label="entropy = 0.0\nsamples = 2\nvalue = [0, 2, 0, 0, 0, 0, 0, 0, 0, 0, 0, 0, 0]\nclass = Browns", fillcolor="#e5ce39ff"] ;
207 -> 209 ;
210 [label="Weighted_education_rank <= -1.131\nentropy = 0.761\nsamples = 33\nvalue = [0, 0, 0, 2, 0, 0, 0, 3, 0, 0, 0, 28, 0]\nclass = Whites", fillcolor="#e53992d4"] ;
188 -> 210 ;
211 [label="Weighted_education_rank <= -1.261\nentropy = 0.381\nsamples = 27\nvalue = [0, 0, 0, 2, 0, 0, 0, 0, 0, 0, 0, 25, 0]\nclass = Whites", fillcolor="#e53992eb"] ;
210 -> 211 ;
212 [label="Avg_environmental_importance <= -0.004\nentropy = 0.918\nsamples = 6\nvalue = [0, 0, 0, 2, 0, 0, 0, 0, 0, 0, 0, 4, 0]\nclass = Whites", fillcolor="#e539927f"] ;
211 -> 212 ;
213 [label="entropy = 0.0\nsamples = 2\nvalue = [0, 0, 0, 2, 0, 0, 0, 0, 0, 0, 0, 0, 0]\nclass = Greys", fillcolor="#5be539ff"] ;
212 -> 213 ;
214 [label="entropy = 0.0\nsamples = 4\nvalue = [0, 0, 0, 0, 0, 0, 0, 0, 0, 0, 0, 4, 0]\nclass = Whites", fillcolor="#e53992ff"] ;
212 -> 214 ;
215 [label="entropy = 0.0\nsamples = 21\nvalue = [0, 0, 0, 0, 0, 0, 0, 0, 0, 0, 0, 21, 0]\nclass = Whites", fillcolor="#e53992ff"] ;
211 -> 215 ;
216 [label="Number_of_valued_Kneset_members <= -0.847\nentropy = 1.0\nsamples = 6\nvalue = [0, 0, 0, 0, 0, 0, 0, 3, 0, 0, 0, 3, 0]\nclass = Purples", fillcolor="#3978e500"] ;
210 -> 216 ;
217 [label="entropy = 0.0\nsamples = 3\nvalue = [0, 0, 0, 0, 0, 0, 0, 0, 0, 0, 0, 3, 0]\nclass = Whites", fillcolor="#e53992ff"] ;
216 -> 217 ;
218 [label="entropy = 0.0\nsamples = 3\nvalue = [0, 0, 0, 0, 0, 0, 0, 3, 0, 0, 0, 0, 0]\nclass = Purples", fillcolor="#3978e5ff"] ;
216 -> 218 ;
219 [label="Avg_Residancy_Altitude <= 0.063\nentropy = 1.436\nsamples = 9\nvalue = [0, 5, 0, 2, 0, 0, 0, 0, 0, 0, 0, 2, 0]\nclass = Browns", fillcolor="#e5ce396d"] ;
187 -> 219 ;
220 [label="entropy = 0.0\nsamples = 5\nvalue = [0, 5, 0, 0, 0, 0, 0, 0, 0, 0, 0, 0, 0]\nclass = Browns", fillcolor="#e5ce39ff"] ;
219 -> 220 ;
221 [label="Yearly_ExpensesK <= -0.779\nentropy = 1.0\nsamples = 4\nvalue = [0, 0, 0, 2, 0, 0, 0, 0, 0, 0, 0, 2, 0]\nclass = Greys", fillcolor="#5be53900"] ;
219 -> 221 ;
222 [label="entropy = 0.0\nsamples = 2\nvalue = [0, 0, 0, 0, 0, 0, 0, 0, 0, 0, 0, 2, 0]\nclass = Whites", fillcolor="#e53992ff"] ;
221 -> 222 ;
223 [label="entropy = 0.0\nsamples = 2\nvalue = [0, 0, 0, 2, 0, 0, 0, 0, 0, 0, 0, 0, 0]\nclass = Greys", fillcolor="#5be539ff"] ;
221 -> 223 ;
224 [label="Avg_environmental_importance <= -0.031\nentropy = 2.047\nsamples = 103\nvalue = [0, 16, 0, 21, 0, 6, 0, 11, 0, 0, 0, 48, 1]\nclass = Whites", fillcolor="#e5399254"] ;
106 -> 224 ;
225 [label="Avg_Residancy_Altitude <= 0.019\nentropy = 1.58\nsamples = 27\nvalue = [0, 15, 0, 5, 0, 1, 0, 6, 0, 0, 0, 0, 0]\nclass = Browns", fillcolor="#e5ce396d"] ;
224 -> 225 ;
226 [label="Avg_government_satisfaction <= -0.23\nentropy = 1.301\nsamples = 23\nvalue = [0, 15, 0, 1, 0, 1, 0, 6, 0, 0, 0, 0, 0]\nclass = Browns", fillcolor="#e5ce3987"] ;
225 -> 226 ;
227 [label="entropy = 0.0\nsamples = 4\nvalue = [0, 0, 0, 0, 0, 0, 0, 4, 0, 0, 0, 0, 0]\nclass = Purples", fillcolor="#3978e5ff"] ;
226 -> 227 ;
228 [label="Avg_education_importance <= -0.045\nentropy = 1.058\nsamples = 19\nvalue = [0, 15, 0, 1, 0, 1, 0, 2, 0, 0, 0, 0, 0]\nclass = Browns", fillcolor="#e5ce39c3"] ;
226 -> 228 ;
229 [label="Avg_monthly_expense_on_pets_or_plants <= -0.249\nentropy = 0.64\nsamples = 17\nvalue = [0, 15, 0, 0, 0, 1, 0, 1, 0, 0, 0, 0, 0]\nclass = Browns", fillcolor="#e5ce39df"] ;
228 -> 229 ;
230 [label="entropy = 0.0\nsamples = 12\nvalue = [0, 12, 0, 0, 0, 0, 0, 0, 0, 0, 0, 0, 0]\nclass = Browns", fillcolor="#e5ce39ff"] ;
229 -> 230 ;
231 [label="Most_Important_Issue <= 4.0\nentropy = 1.371\nsamples = 5\nvalue = [0, 3, 0, 0, 0, 1, 0, 1, 0, 0, 0, 0, 0]\nclass = Browns", fillcolor="#e5ce397f"] ;
229 -> 231 ;
232 [label="Avg_monthly_expense_on_pets_or_plants <= -0.108\nentropy = 0.811\nsamples = 4\nvalue = [0, 3, 0, 0, 0, 0, 0, 1, 0, 0, 0, 0, 0]\nclass = Browns", fillcolor="#e5ce39aa"] ;
231 -> 232 ;
233 [label="entropy = 0.0\nsamples = 1\nvalue = [0, 0, 0, 0, 0, 0, 0, 1, 0, 0, 0, 0, 0]\nclass = Purples", fillcolor="#3978e5ff"] ;
232 -> 233 ;
234 [label="entropy = 0.0\nsamples = 3\nvalue = [0, 3, 0, 0, 0, 0, 0, 0, 0, 0, 0, 0, 0]\nclass = Browns", fillcolor="#e5ce39ff"] ;
232 -> 234 ;
235 [label="entropy = 0.0\nsamples = 1\nvalue = [0, 0, 0, 0, 0, 1, 0, 0, 0, 0, 0, 0, 0]\nclass = Oranges", fillcolor="#39e5b4ff"] ;
231 -> 235 ;
236 [label="entropy = 1.0\nsamples = 2\nvalue = [0, 0, 0, 1, 0, 0, 0, 1, 0, 0, 0, 0, 0]\nclass = Greys", fillcolor="#5be53900"] ;
228 -> 236 ;
237 [label="entropy = 0.0\nsamples = 4\nvalue = [0, 0, 0, 4, 0, 0, 0, 0, 0, 0, 0, 0, 0]\nclass = Greys", fillcolor="#5be539ff"] ;
225 -> 237 ;
238 [label="Weighted_education_rank <= -0.751\nentropy = 1.573\nsamples = 76\nvalue = [0, 1, 0, 16, 0, 5, 0, 5, 0, 0, 0, 48, 1]\nclass = Whites", fillcolor="#e5399288"] ;
224 -> 238 ;
239 [label="Most_Important_Issue <= 2.5\nentropy = 1.197\nsamples = 55\nvalue = [0, 1, 0, 16, 0, 0, 0, 2, 0, 0, 0, 36, 0]\nclass = Whites", fillcolor="#e5399283"] ;
238 -> 239 ;
240 [label="Avg_education_importance <= -0.057\nentropy = 0.803\nsamples = 18\nvalue = [0, 1, 0, 0, 0, 0, 0, 2, 0, 0, 0, 15, 0]\nclass = Whites", fillcolor="#e53992cf"] ;
239 -> 240 ;
241 [label="Avg_environmental_importance <= 0.011\nentropy = 0.337\nsamples = 16\nvalue = [0, 1, 0, 0, 0, 0, 0, 0, 0, 0, 0, 15, 0]\nclass = Whites", fillcolor="#e53992ee"] ;
240 -> 241 ;
242 [label="entropy = 1.0\nsamples = 2\nvalue = [0, 1, 0, 0, 0, 0, 0, 0, 0, 0, 0, 1, 0]\nclass = Browns", fillcolor="#e5ce3900"] ;
241 -> 242 ;
243 [label="entropy = 0.0\nsamples = 14\nvalue = [0, 0, 0, 0, 0, 0, 0, 0, 0, 0, 0, 14, 0]\nclass = Whites", fillcolor="#e53992ff"] ;
241 -> 243 ;
244 [label="entropy = 0.0\nsamples = 2\nvalue = [0, 0, 0, 0, 0, 0, 0, 2, 0, 0, 0, 0, 0]\nclass = Purples", fillcolor="#3978e5ff"] ;
240 -> 244 ;
245 [label="Most_Important_Issue <= 3.5\nentropy = 0.987\nsamples = 37\nvalue = [0, 0, 0, 16, 0, 0, 0, 0, 0, 0, 0, 21, 0]\nclass = Whites", fillcolor="#e539923d"] ;
239 -> 245 ;
246 [label="entropy = 0.0\nsamples = 8\nvalue = [0, 0, 0, 8, 0, 0, 0, 0, 0, 0, 0, 0, 0]\nclass = Greys", fillcolor="#5be539ff"] ;
245 -> 246 ;
247 [label="Avg_education_importance <= -0.145\nentropy = 0.85\nsamples = 29\nvalue = [0, 0, 0, 8, 0, 0, 0, 0, 0, 0, 0, 21, 0]\nclass = Whites", fillcolor="#e539929e"] ;
245 -> 247 ;
248 [label="entropy = 0.0\nsamples = 4\nvalue = [0, 0, 0, 4, 0, 0, 0, 0, 0, 0, 0, 0, 0]\nclass = Greys", fillcolor="#5be539ff"] ;
247 -> 248 ;
249 [label="Avg_Residancy_Altitude <= 0.083\nentropy = 0.634\nsamples = 25\nvalue = [0, 0, 0, 4, 0, 0, 0, 0, 0, 0, 0, 21, 0]\nclass = Whites", fillcolor="#e53992ce"] ;
247 -> 249 ;
250 [label="Yearly_ExpensesK <= 0.931\nentropy = 0.267\nsamples = 22\nvalue = [0, 0, 0, 1, 0, 0, 0, 0, 0, 0, 0, 21, 0]\nclass = Whites", fillcolor="#e53992f3"] ;
249 -> 250 ;
251 [label="entropy = 0.0\nsamples = 21\nvalue = [0, 0, 0, 0, 0, 0, 0, 0, 0, 0, 0, 21, 0]\nclass = Whites", fillcolor="#e53992ff"] ;
250 -> 251 ;
252 [label="entropy = 0.0\nsamples = 1\nvalue = [0, 0, 0, 1, 0, 0, 0, 0, 0, 0, 0, 0, 0]\nclass = Greys", fillcolor="#5be539ff"] ;
250 -> 252 ;
253 [label="entropy = 0.0\nsamples = 3\nvalue = [0, 0, 0, 3, 0, 0, 0, 0, 0, 0, 0, 0, 0]\nclass = Greys", fillcolor="#5be539ff"] ;
249 -> 253 ;
254 [label="Most_Important_Issue <= 4.5\nentropy = 1.565\nsamples = 21\nvalue = [0, 0, 0, 0, 0, 5, 0, 3, 0, 0, 0, 12, 1]\nclass = Whites", fillcolor="#e5399270"] ;
238 -> 254 ;
255 [label="Avg_education_importance <= -0.204\nentropy = 0.946\nsamples = 14\nvalue = [0, 0, 0, 0, 0, 0, 0, 2, 0, 0, 0, 11, 1]\nclass = Whites", fillcolor="#e53992bf"] ;
254 -> 255 ;
256 [label="entropy = 1.0\nsamples = 2\nvalue = [0, 0, 0, 0, 0, 0, 0, 1, 0, 0, 0, 0, 1]\nclass = Purples", fillcolor="#3978e500"] ;
255 -> 256 ;
257 [label="Avg_education_importance <= -0.054\nentropy = 0.414\nsamples = 12\nvalue = [0, 0, 0, 0, 0, 0, 0, 1, 0, 0, 0, 11, 0]\nclass = Whites", fillcolor="#e53992e8"] ;
255 -> 257 ;
258 [label="entropy = 0.0\nsamples = 11\nvalue = [0, 0, 0, 0, 0, 0, 0, 0, 0, 0, 0, 11, 0]\nclass = Whites", fillcolor="#e53992ff"] ;
257 -> 258 ;
259 [label="entropy = 0.0\nsamples = 1\nvalue = [0, 0, 0, 0, 0, 0, 0, 1, 0, 0, 0, 0, 0]\nclass = Purples", fillcolor="#3978e5ff"] ;
257 -> 259 ;
260 [label="Avg_environmental_importance <= -0.001\nentropy = 1.149\nsamples = 7\nvalue = [0, 0, 0, 0, 0, 5, 0, 1, 0, 0, 0, 1, 0]\nclass = Oranges", fillcolor="#39e5b4aa"] ;
254 -> 260 ;
261 [label="entropy = 0.0\nsamples = 1\nvalue = [0, 0, 0, 0, 0, 0, 0, 0, 0, 0, 0, 1, 0]\nclass = Whites", fillcolor="#e53992ff"] ;
260 -> 261 ;
262 [label="Avg_monthly_expense_on_pets_or_plants <= -0.92\nentropy = 0.65\nsamples = 6\nvalue = [0, 0, 0, 0, 0, 5, 0, 1, 0, 0, 0, 0, 0]\nclass = Oranges", fillcolor="#39e5b4cc"] ;
260 -> 262 ;
263 [label="entropy = 0.0\nsamples = 1\nvalue = [0, 0, 0, 0, 0, 0, 0, 1, 0, 0, 0, 0, 0]\nclass = Purples", fillcolor="#3978e5ff"] ;
262 -> 263 ;
264 [label="entropy = 0.0\nsamples = 5\nvalue = [0, 0, 0, 0, 0, 5, 0, 0, 0, 0, 0, 0, 0]\nclass = Oranges", fillcolor="#39e5b4ff"] ;
262 -> 264 ;
265 [label="Avg_environmental_importance <= 0.144\nentropy = 1.349\nsamples = 97\nvalue = [0, 0, 0, 52, 0, 3, 0, 0, 2, 0, 0, 39, 1]\nclass = Greys", fillcolor="#5be53939"] ;
105 -> 265 ;
266 [label="Avg_Residancy_Altitude <= 0.09\nentropy = 1.126\nsamples = 60\nvalue = [0, 0, 0, 19, 0, 1, 0, 0, 0, 0, 0, 39, 1]\nclass = Whites", fillcolor="#e539927c"] ;
265 -> 266 ;
267 [label="Most_Important_Issue <= 2.5\nentropy = 0.787\nsamples = 51\nvalue = [0, 0, 0, 12, 0, 0, 0, 0, 0, 0, 0, 39, 0]\nclass = Whites", fillcolor="#e53992b1"] ;
266 -> 267 ;
268 [label="entropy = 0.0\nsamples = 21\nvalue = [0, 0, 0, 0, 0, 0, 0, 0, 0, 0, 0, 21, 0]\nclass = Whites", fillcolor="#e53992ff"] ;
267 -> 268 ;
269 [label="Most_Important_Issue <= 3.5\nentropy = 0.971\nsamples = 30\nvalue = [0, 0, 0, 12, 0, 0, 0, 0, 0, 0, 0, 18, 0]\nclass = Whites", fillcolor="#e5399255"] ;
267 -> 269 ;
270 [label="entropy = 0.0\nsamples = 9\nvalue = [0, 0, 0, 9, 0, 0, 0, 0, 0, 0, 0, 0, 0]\nclass = Greys", fillcolor="#5be539ff"] ;
269 -> 270 ;
271 [label="Avg_education_importance <= -0.141\nentropy = 0.592\nsamples = 21\nvalue = [0, 0, 0, 3, 0, 0, 0, 0, 0, 0, 0, 18, 0]\nclass = Whites", fillcolor="#e53992d4"] ;
269 -> 271 ;
272 [label="Avg_Residancy_Altitude <= -0.604\nentropy = 0.811\nsamples = 4\nvalue = [0, 0, 0, 3, 0, 0, 0, 0, 0, 0, 0, 1, 0]\nclass = Greys", fillcolor="#5be539aa"] ;
271 -> 272 ;
273 [label="entropy = 0.0\nsamples = 1\nvalue = [0, 0, 0, 0, 0, 0, 0, 0, 0, 0, 0, 1, 0]\nclass = Whites", fillcolor="#e53992ff"] ;
272 -> 273 ;
274 [label="entropy = 0.0\nsamples = 3\nvalue = [0, 0, 0, 3, 0, 0, 0, 0, 0, 0, 0, 0, 0]\nclass = Greys", fillcolor="#5be539ff"] ;
272 -> 274 ;
275 [label="entropy = 0.0\nsamples = 17\nvalue = [0, 0, 0, 0, 0, 0, 0, 0, 0, 0, 0, 17, 0]\nclass = Whites", fillcolor="#e53992ff"] ;
271 -> 275 ;
276 [label="Weighted_education_rank <= -0.733\nentropy = 0.986\nsamples = 9\nvalue = [0, 0, 0, 7, 0, 1, 0, 0, 0, 0, 0, 0, 1]\nclass = Greys", fillcolor="#5be539bf"] ;
266 -> 276 ;
277 [label="entropy = 0.0\nsamples = 7\nvalue = [0, 0, 0, 7, 0, 0, 0, 0, 0, 0, 0, 0, 0]\nclass = Greys", fillcolor="#5be539ff"] ;
276 -> 277 ;
278 [label="entropy = 1.0\nsamples = 2\nvalue = [0, 0, 0, 0, 0, 1, 0, 0, 0, 0, 0, 0, 1]\nclass = Oranges", fillcolor="#39e5b400"] ;
276 -> 278 ;
279 [label="Weighted_education_rank <= -0.644\nentropy = 0.602\nsamples = 37\nvalue = [0, 0, 0, 33, 0, 2, 0, 0, 2, 0, 0, 0, 0]\nclass = Greys", fillcolor="#5be539e2"] ;
265 -> 279 ;
280 [label="Number_of_valued_Kneset_members <= -0.847\nentropy = 0.191\nsamples = 34\nvalue = [0, 0, 0, 33, 0, 0, 0, 0, 1, 0, 0, 0, 0]\nclass = Greys", fillcolor="#5be539f7"] ;
279 -> 280 ;
281 [label="entropy = 0.0\nsamples = 27\nvalue = [0, 0, 0, 27, 0, 0, 0, 0, 0, 0, 0, 0, 0]\nclass = Greys", fillcolor="#5be539ff"] ;
280 -> 281 ;
282 [label="Avg_government_satisfaction <= -0.098\nentropy = 0.592\nsamples = 7\nvalue = [0, 0, 0, 6, 0, 0, 0, 0, 1, 0, 0, 0, 0]\nclass = Greys", fillcolor="#5be539d4"] ;
280 -> 282 ;
283 [label="entropy = 1.0\nsamples = 2\nvalue = [0, 0, 0, 1, 0, 0, 0, 0, 1, 0, 0, 0, 0]\nclass = Greys", fillcolor="#5be53900"] ;
282 -> 283 ;
284 [label="entropy = 0.0\nsamples = 5\nvalue = [0, 0, 0, 5, 0, 0, 0, 0, 0, 0, 0, 0, 0]\nclass = Greys", fillcolor="#5be539ff"] ;
282 -> 284 ;
285 [label="Avg_Residancy_Altitude <= -0.22\nentropy = 0.918\nsamples = 3\nvalue = [0, 0, 0, 0, 0, 2, 0, 0, 1, 0, 0, 0, 0]\nclass = Oranges", fillcolor="#39e5b47f"] ;
279 -> 285 ;
286 [label="entropy = 0.0\nsamples = 1\nvalue = [0, 0, 0, 0, 0, 0, 0, 0, 1, 0, 0, 0, 0]\nclass = Reds", fillcolor="#4a39e5ff"] ;
285 -> 286 ;
287 [label="entropy = 0.0\nsamples = 2\nvalue = [0, 0, 0, 0, 0, 2, 0, 0, 0, 0, 0, 0, 0]\nclass = Oranges", fillcolor="#39e5b4ff"] ;
285 -> 287 ;
288 [label="Most_Important_Issue <= 2.5\nentropy = 0.759\nsamples = 132\nvalue = [3, 3, 0, 117, 0, 0, 3, 0, 0, 0, 0, 1, 5]\nclass = Greys", fillcolor="#5be539e1"] ;
104 -> 288 ;
289 [label="Avg_government_satisfaction <= 0.162\nentropy = 1.449\nsamples = 7\nvalue = [1, 0, 0, 0, 0, 0, 3, 0, 0, 0, 0, 0, 3]\nclass = Pinks", fillcolor="#39c5e500"] ;
288 -> 289 ;
290 [label="entropy = 0.0\nsamples = 3\nvalue = [0, 0, 0, 0, 0, 0, 0, 0, 0, 0, 0, 0, 3]\nclass = Yellows", fillcolor="#e53941ff"] ;
289 -> 290 ;
291 [label="Avg_government_satisfaction <= 0.242\nentropy = 0.811\nsamples = 4\nvalue = [1, 0, 0, 0, 0, 0, 3, 0, 0, 0, 0, 0, 0]\nclass = Pinks", fillcolor="#39c5e5aa"] ;
289 -> 291 ;
292 [label="entropy = 0.0\nsamples = 3\nvalue = [0, 0, 0, 0, 0, 0, 3, 0, 0, 0, 0, 0, 0]\nclass = Pinks", fillcolor="#39c5e5ff"] ;
291 -> 292 ;
293 [label="entropy = 0.0\nsamples = 1\nvalue = [1, 0, 0, 0, 0, 0, 0, 0, 0, 0, 0, 0, 0]\nclass = Blues", fillcolor="#e58139ff"] ;
291 -> 293 ;
294 [label="Most_Important_Issue <= 6.0\nentropy = 0.465\nsamples = 125\nvalue = [2, 3, 0, 117, 0, 0, 0, 0, 0, 0, 0, 1, 2]\nclass = Greys", fillcolor="#5be539ee"] ;
288 -> 294 ;
295 [label="Weighted_education_rank <= -1.224\nentropy = 0.208\nsamples = 120\nvalue = [1, 1, 0, 117, 0, 0, 0, 0, 0, 0, 0, 1, 0]\nclass = Greys", fillcolor="#5be539f9"] ;
294 -> 295 ;
296 [label="Weighted_education_rank <= -1.281\nentropy = 1.5\nsamples = 4\nvalue = [0, 1, 0, 2, 0, 0, 0, 0, 0, 0, 0, 1, 0]\nclass = Greys", fillcolor="#5be53955"] ;
295 -> 296 ;
297 [label="entropy = 0.0\nsamples = 2\nvalue = [0, 0, 0, 2, 0, 0, 0, 0, 0, 0, 0, 0, 0]\nclass = Greys", fillcolor="#5be539ff"] ;
296 -> 297 ;
298 [label="entropy = 1.0\nsamples = 2\nvalue = [0, 1, 0, 0, 0, 0, 0, 0, 0, 0, 0, 1, 0]\nclass = Browns", fillcolor="#e5ce3900"] ;
296 -> 298 ;
299 [label="Avg_education_importance <= -0.281\nentropy = 0.072\nsamples = 116\nvalue = [1, 0, 0, 115, 0, 0, 0, 0, 0, 0, 0, 0, 0]\nclass = Greys", fillcolor="#5be539fd"] ;
295 -> 299 ;
300 [label="entropy = 0.0\nsamples = 1\nvalue = [1, 0, 0, 0, 0, 0, 0, 0, 0, 0, 0, 0, 0]\nclass = Blues", fillcolor="#e58139ff"] ;
299 -> 300 ;
301 [label="entropy = 0.0\nsamples = 115\nvalue = [0, 0, 0, 115, 0, 0, 0, 0, 0, 0, 0, 0, 0]\nclass = Greys", fillcolor="#5be539ff"] ;
299 -> 301 ;
302 [label="Avg_government_satisfaction <= 0.049\nentropy = 1.522\nsamples = 5\nvalue = [1, 2, 0, 0, 0, 0, 0, 0, 0, 0, 0, 0, 2]\nclass = Browns", fillcolor="#e5ce3900"] ;
294 -> 302 ;
303 [label="entropy = 0.0\nsamples = 2\nvalue = [0, 2, 0, 0, 0, 0, 0, 0, 0, 0, 0, 0, 0]\nclass = Browns", fillcolor="#e5ce39ff"] ;
302 -> 303 ;
304 [label="Avg_monthly_expense_on_pets_or_plants <= 0.503\nentropy = 0.918\nsamples = 3\nvalue = [1, 0, 0, 0, 0, 0, 0, 0, 0, 0, 0, 0, 2]\nclass = Yellows", fillcolor="#e539417f"] ;
302 -> 304 ;
305 [label="entropy = 0.0\nsamples = 2\nvalue = [0, 0, 0, 0, 0, 0, 0, 0, 0, 0, 0, 0, 2]\nclass = Yellows", fillcolor="#e53941ff"] ;
304 -> 305 ;
306 [label="entropy = 0.0\nsamples = 1\nvalue = [1, 0, 0, 0, 0, 0, 0, 0, 0, 0, 0, 0, 0]\nclass = Blues", fillcolor="#e58139ff"] ;
304 -> 306 ;
307 [label="Avg_environmental_importance <= -0.067\nentropy = 1.574\nsamples = 432\nvalue = [0, 0, 0, 0, 2, 16, 4, 98, 279, 3, 2, 14, 14]\nclass = Reds", fillcolor="#4a39e58a"] ;
3 -> 307 ;
308 [label="Weighted_education_rank <= -0.636\nentropy = 1.496\nsamples = 188\nvalue = [0, 0, 0, 0, 0, 13, 4, 93, 76, 0, 0, 1, 1]\nclass = Purples", fillcolor="#3978e527"] ;
307 -> 308 ;
309 [label="Most_Important_Issue <= 2.5\nentropy = 1.052\nsamples = 148\nvalue = [0, 0, 0, 0, 0, 0, 0, 73, 74, 0, 0, 1, 0]\nclass = Reds", fillcolor="#4a39e503"] ;
308 -> 309 ;
310 [label="entropy = 0.0\nsamples = 31\nvalue = [0, 0, 0, 0, 0, 0, 0, 31, 0, 0, 0, 0, 0]\nclass = Purples", fillcolor="#3978e5ff"] ;
309 -> 310 ;
311 [label="Most_Important_Issue <= 6.5\nentropy = 1.007\nsamples = 117\nvalue = [0, 0, 0, 0, 0, 0, 0, 42, 74, 0, 0, 1, 0]\nclass = Reds", fillcolor="#4a39e56d"] ;
309 -> 311 ;
312 [label="Number_of_valued_Kneset_members <= -0.471\nentropy = 0.663\nsamples = 87\nvalue = [0, 0, 0, 0, 0, 0, 0, 15, 72, 0, 0, 0, 0]\nclass = Reds", fillcolor="#4a39e5ca"] ;
311 -> 312 ;
313 [label="Number_of_valued_Kneset_members <= -1.591\nentropy = 0.129\nsamples = 56\nvalue = [0, 0, 0, 0, 0, 0, 0, 1, 55, 0, 0, 0, 0]\nclass = Reds", fillcolor="#4a39e5fa"] ;
312 -> 313 ;
314 [label="Yearly_ExpensesK <= -0.53\nentropy = 0.722\nsamples = 5\nvalue = [0, 0, 0, 0, 0, 0, 0, 1, 4, 0, 0, 0, 0]\nclass = Reds", fillcolor="#4a39e5bf"] ;
313 -> 314 ;
315 [label="entropy = 0.0\nsamples = 1\nvalue = [0, 0, 0, 0, 0, 0, 0, 1, 0, 0, 0, 0, 0]\nclass = Purples", fillcolor="#3978e5ff"] ;
314 -> 315 ;
316 [label="entropy = 0.0\nsamples = 4\nvalue = [0, 0, 0, 0, 0, 0, 0, 0, 4, 0, 0, 0, 0]\nclass = Reds", fillcolor="#4a39e5ff"] ;
314 -> 316 ;
317 [label="entropy = 0.0\nsamples = 51\nvalue = [0, 0, 0, 0, 0, 0, 0, 0, 51, 0, 0, 0, 0]\nclass = Reds", fillcolor="#4a39e5ff"] ;
313 -> 317 ;
318 [label="Most_Important_Issue <= 5.0\nentropy = 0.993\nsamples = 31\nvalue = [0, 0, 0, 0, 0, 0, 0, 14, 17, 0, 0, 0, 0]\nclass = Reds", fillcolor="#4a39e52d"] ;
312 -> 318 ;
319 [label="Most_Important_Issue <= 3.5\nentropy = 0.672\nsamples = 17\nvalue = [0, 0, 0, 0, 0, 0, 0, 14, 3, 0, 0, 0, 0]\nclass = Purples", fillcolor="#3978e5c8"] ;
318 -> 319 ;
320 [label="entropy = 0.0\nsamples = 3\nvalue = [0, 0, 0, 0, 0, 0, 0, 0, 3, 0, 0, 0, 0]\nclass = Reds", fillcolor="#4a39e5ff"] ;
319 -> 320 ;
321 [label="entropy = 0.0\nsamples = 14\nvalue = [0, 0, 0, 0, 0, 0, 0, 14, 0, 0, 0, 0, 0]\nclass = Purples", fillcolor="#3978e5ff"] ;
319 -> 321 ;
322 [label="entropy = 0.0\nsamples = 14\nvalue = [0, 0, 0, 0, 0, 0, 0, 0, 14, 0, 0, 0, 0]\nclass = Reds", fillcolor="#4a39e5ff"] ;
318 -> 322 ;
323 [label="Number_of_valued_Kneset_members <= -0.847\nentropy = 0.561\nsamples = 30\nvalue = [0, 0, 0, 0, 0, 0, 0, 27, 2, 0, 0, 1, 0]\nclass = Purples", fillcolor="#3978e5e4"] ;
311 -> 323 ;
324 [label="Avg_Residancy_Altitude <= -0.688\nentropy = 0.918\nsamples = 3\nvalue = [0, 0, 0, 0, 0, 0, 0, 0, 2, 0, 0, 1, 0]\nclass = Reds", fillcolor="#4a39e57f"] ;
323 -> 324 ;
325 [label="entropy = 0.0\nsamples = 1\nvalue = [0, 0, 0, 0, 0, 0, 0, 0, 0, 0, 0, 1, 0]\nclass = Whites", fillcolor="#e53992ff"] ;
324 -> 325 ;
326 [label="entropy = 0.0\nsamples = 2\nvalue = [0, 0, 0, 0, 0, 0, 0, 0, 2, 0, 0, 0, 0]\nclass = Reds", fillcolor="#4a39e5ff"] ;
324 -> 326 ;
327 [label="entropy = 0.0\nsamples = 27\nvalue = [0, 0, 0, 0, 0, 0, 0, 27, 0, 0, 0, 0, 0]\nclass = Purples", fillcolor="#3978e5ff"] ;
323 -> 327 ;
328 [label="Avg_Residancy_Altitude <= 0.079\nentropy = 1.708\nsamples = 40\nvalue = [0, 0, 0, 0, 0, 13, 4, 20, 2, 0, 0, 0, 1]\nclass = Purples", fillcolor="#3978e542"] ;
308 -> 328 ;
329 [label="Number_of_valued_Kneset_members <= -0.881\nentropy = 1.274\nsamples = 31\nvalue = [0, 0, 0, 0, 0, 7, 4, 20, 0, 0, 0, 0, 0]\nclass = Purples", fillcolor="#3978e58a"] ;
328 -> 329 ;
330 [label="Most_Important_Issue <= 3.5\nentropy = 1.495\nsamples = 11\nvalue = [0, 0, 0, 0, 0, 5, 4, 2, 0, 0, 0, 0, 0]\nclass = Oranges", fillcolor="#39e5b424"] ;
329 -> 330 ;
331 [label="Avg_environmental_importance <= -0.272\nentropy = 0.918\nsamples = 6\nvalue = [0, 0, 0, 0, 0, 0, 4, 2, 0, 0, 0, 0, 0]\nclass = Pinks", fillcolor="#39c5e57f"] ;
330 -> 331 ;
332 [label="entropy = 0.0\nsamples = 4\nvalue = [0, 0, 0, 0, 0, 0, 4, 0, 0, 0, 0, 0, 0]\nclass = Pinks", fillcolor="#39c5e5ff"] ;
331 -> 332 ;
333 [label="entropy = 0.0\nsamples = 2\nvalue = [0, 0, 0, 0, 0, 0, 0, 2, 0, 0, 0, 0, 0]\nclass = Purples", fillcolor="#3978e5ff"] ;
331 -> 333 ;
334 [label="entropy = 0.0\nsamples = 5\nvalue = [0, 0, 0, 0, 0, 5, 0, 0, 0, 0, 0, 0, 0]\nclass = Oranges", fillcolor="#39e5b4ff"] ;
330 -> 334 ;
335 [label="Avg_environmental_importance <= -0.33\nentropy = 0.469\nsamples = 20\nvalue = [0, 0, 0, 0, 0, 2, 0, 18, 0, 0, 0, 0, 0]\nclass = Purples", fillcolor="#3978e5e3"] ;
329 -> 335 ;
336 [label="entropy = 0.0\nsamples = 1\nvalue = [0, 0, 0, 0, 0, 1, 0, 0, 0, 0, 0, 0, 0]\nclass = Oranges", fillcolor="#39e5b4ff"] ;
335 -> 336 ;
337 [label="Yearly_ExpensesK <= 0.956\nentropy = 0.297\nsamples = 19\nvalue = [0, 0, 0, 0, 0, 1, 0, 18, 0, 0, 0, 0, 0]\nclass = Purples", fillcolor="#3978e5f1"] ;
335 -> 337 ;
338 [label="entropy = 0.0\nsamples = 17\nvalue = [0, 0, 0, 0, 0, 0, 0, 17, 0, 0, 0, 0, 0]\nclass = Purples", fillcolor="#3978e5ff"] ;
337 -> 338 ;
339 [label="entropy = 1.0\nsamples = 2\nvalue = [0, 0, 0, 0, 0, 1, 0, 1, 0, 0, 0, 0, 0]\nclass = Oranges", fillcolor="#39e5b400"] ;
337 -> 339 ;
340 [label="Yearly_ExpensesK <= -0.576\nentropy = 1.224\nsamples = 9\nvalue = [0, 0, 0, 0, 0, 6, 0, 0, 2, 0, 0, 0, 1]\nclass = Oranges", fillcolor="#39e5b492"] ;
328 -> 340 ;
341 [label="entropy = 0.0\nsamples = 6\nvalue = [0, 0, 0, 0, 0, 6, 0, 0, 0, 0, 0, 0, 0]\nclass = Oranges", fillcolor="#39e5b4ff"] ;
340 -> 341 ;
342 [label="Avg_education_importance <= 0.215\nentropy = 0.918\nsamples = 3\nvalue = [0, 0, 0, 0, 0, 0, 0, 0, 2, 0, 0, 0, 1]\nclass = Reds", fillcolor="#4a39e57f"] ;
340 -> 342 ;
343 [label="entropy = 0.0\nsamples = 1\nvalue = [0, 0, 0, 0, 0, 0, 0, 0, 0, 0, 0, 0, 1]\nclass = Yellows", fillcolor="#e53941ff"] ;
342 -> 343 ;
344 [label="entropy = 0.0\nsamples = 2\nvalue = [0, 0, 0, 0, 0, 0, 0, 0, 2, 0, 0, 0, 0]\nclass = Reds", fillcolor="#4a39e5ff"] ;
342 -> 344 ;
345 [label="Most_Important_Issue <= 2.5\nentropy = 1.056\nsamples = 244\nvalue = [0, 0, 0, 0, 2, 3, 0, 5, 203, 3, 2, 13, 13]\nclass = Reds", fillcolor="#4a39e5d2"] ;
307 -> 345 ;
346 [label="Avg_education_importance <= 0.12\nentropy = 2.111\nsamples = 23\nvalue = [0, 0, 0, 0, 2, 0, 0, 3, 0, 1, 1, 10, 6]\nclass = Whites", fillcolor="#e539923c"] ;
345 -> 346 ;
347 [label="Avg_environmental_importance <= -0.031\nentropy = 0.439\nsamples = 11\nvalue = [0, 0, 0, 0, 0, 0, 0, 1, 0, 0, 0, 10, 0]\nclass = Whites", fillcolor="#e53992e6"] ;
346 -> 347 ;
348 [label="entropy = 0.0\nsamples = 1\nvalue = [0, 0, 0, 0, 0, 0, 0, 1, 0, 0, 0, 0, 0]\nclass = Purples", fillcolor="#3978e5ff"] ;
347 -> 348 ;
349 [label="entropy = 0.0\nsamples = 10\nvalue = [0, 0, 0, 0, 0, 0, 0, 0, 0, 0, 0, 10, 0]\nclass = Whites", fillcolor="#e53992ff"] ;
347 -> 349 ;
350 [label="Avg_Residancy_Altitude <= 0.408\nentropy = 1.959\nsamples = 12\nvalue = [0, 0, 0, 0, 2, 0, 0, 2, 0, 1, 1, 0, 6]\nclass = Yellows", fillcolor="#e5394166"] ;
346 -> 350 ;
351 [label="Avg_education_importance <= 0.151\nentropy = 1.224\nsamples = 9\nvalue = [0, 0, 0, 0, 0, 0, 0, 2, 0, 0, 1, 0, 6]\nclass = Yellows", fillcolor="#e5394192"] ;
350 -> 351 ;
352 [label="entropy = 1.0\nsamples = 2\nvalue = [0, 0, 0, 0, 0, 0, 0, 1, 0, 0, 1, 0, 0]\nclass = Purples", fillcolor="#3978e500"] ;
351 -> 352 ;
353 [label="Yearly_ExpensesK <= -0.564\nentropy = 0.592\nsamples = 7\nvalue = [0, 0, 0, 0, 0, 0, 0, 1, 0, 0, 0, 0, 6]\nclass = Yellows", fillcolor="#e53941d4"] ;
351 -> 353 ;
354 [label="entropy = 0.0\nsamples = 1\nvalue = [0, 0, 0, 0, 0, 0, 0, 1, 0, 0, 0, 0, 0]\nclass = Purples", fillcolor="#3978e5ff"] ;
353 -> 354 ;
355 [label="entropy = 0.0\nsamples = 6\nvalue = [0, 0, 0, 0, 0, 0, 0, 0, 0, 0, 0, 0, 6]\nclass = Yellows", fillcolor="#e53941ff"] ;
353 -> 355 ;
356 [label="Avg_government_satisfaction <= 0.22\nentropy = 0.918\nsamples = 3\nvalue = [0, 0, 0, 0, 2, 0, 0, 0, 0, 1, 0, 0, 0]\nclass = Khakis", fillcolor="#39e5647f"] ;
350 -> 356 ;
357 [label="entropy = 0.0\nsamples = 2\nvalue = [0, 0, 0, 0, 2, 0, 0, 0, 0, 0, 0, 0, 0]\nclass = Khakis", fillcolor="#39e564ff"] ;
356 -> 357 ;
358 [label="entropy = 0.0\nsamples = 1\nvalue = [0, 0, 0, 0, 0, 0, 0, 0, 0, 1, 0, 0, 0]\nclass = Turquoises", fillcolor="#9a39e5ff"] ;
356 -> 358 ;
359 [label="Most_Important_Issue <= 6.5\nentropy = 0.597\nsamples = 221\nvalue = [0, 0, 0, 0, 0, 3, 0, 2, 203, 2, 1, 3, 7]\nclass = Reds", fillcolor="#4a39e5ea"] ;
345 -> 359 ;
360 [label="Avg_government_satisfaction <= 0.061\nentropy = 0.349\nsamples = 210\nvalue = [0, 0, 0, 0, 0, 3, 0, 0, 201, 2, 1, 2, 1]\nclass = Reds", fillcolor="#4a39e5f4"] ;
359 -> 360 ;
361 [label="Number_of_valued_Kneset_members <= -1.975\nentropy = 0.188\nsamples = 206\nvalue = [0, 0, 0, 0, 0, 3, 0, 0, 201, 0, 0, 2, 0]\nclass = Reds", fillcolor="#4a39e5f9"] ;
360 -> 361 ;
362 [label="entropy = 0.0\nsamples = 2\nvalue = [0, 0, 0, 0, 0, 2, 0, 0, 0, 0, 0, 0, 0]\nclass = Oranges", fillcolor="#39e5b4ff"] ;
361 -> 362 ;
363 [label="Weighted_education_rank <= -1.093\nentropy = 0.124\nsamples = 204\nvalue = [0, 0, 0, 0, 0, 1, 0, 0, 201, 0, 0, 2, 0]\nclass = Reds", fillcolor="#4a39e5fb"] ;
361 -> 363 ;
364 [label="Avg_environmental_importance <= 0.038\nentropy = 0.503\nsamples = 18\nvalue = [0, 0, 0, 0, 0, 0, 0, 0, 16, 0, 0, 2, 0]\nclass = Reds", fillcolor="#4a39e5df"] ;
363 -> 364 ;
365 [label="entropy = 0.0\nsamples = 13\nvalue = [0, 0, 0, 0, 0, 0, 0, 0, 13, 0, 0, 0, 0]\nclass = Reds", fillcolor="#4a39e5ff"] ;
364 -> 365 ;
366 [label="Avg_government_satisfaction <= -0.003\nentropy = 0.971\nsamples = 5\nvalue = [0, 0, 0, 0, 0, 0, 0, 0, 3, 0, 0, 2, 0]\nclass = Reds", fillcolor="#4a39e555"] ;
364 -> 366 ;
367 [label="entropy = 0.0\nsamples = 2\nvalue = [0, 0, 0, 0, 0, 0, 0, 0, 0, 0, 0, 2, 0]\nclass = Whites", fillcolor="#e53992ff"] ;
366 -> 367 ;
368 [label="entropy = 0.0\nsamples = 3\nvalue = [0, 0, 0, 0, 0, 0, 0, 0, 3, 0, 0, 0, 0]\nclass = Reds", fillcolor="#4a39e5ff"] ;
366 -> 368 ;
369 [label="Weighted_education_rank <= -0.549\nentropy = 0.048\nsamples = 186\nvalue = [0, 0, 0, 0, 0, 1, 0, 0, 185, 0, 0, 0, 0]\nclass = Reds", fillcolor="#4a39e5fe"] ;
363 -> 369 ;
370 [label="entropy = 0.0\nsamples = 179\nvalue = [0, 0, 0, 0, 0, 0, 0, 0, 179, 0, 0, 0, 0]\nclass = Reds", fillcolor="#4a39e5ff"] ;
369 -> 370 ;
371 [label="Avg_monthly_expense_on_pets_or_plants <= 0.59\nentropy = 0.592\nsamples = 7\nvalue = [0, 0, 0, 0, 0, 1, 0, 0, 6, 0, 0, 0, 0]\nclass = Reds", fillcolor="#4a39e5d4"] ;
369 -> 371 ;
372 [label="entropy = 0.0\nsamples = 6\nvalue = [0, 0, 0, 0, 0, 0, 0, 0, 6, 0, 0, 0, 0]\nclass = Reds", fillcolor="#4a39e5ff"] ;
371 -> 372 ;
373 [label="entropy = 0.0\nsamples = 1\nvalue = [0, 0, 0, 0, 0, 1, 0, 0, 0, 0, 0, 0, 0]\nclass = Oranges", fillcolor="#39e5b4ff"] ;
371 -> 373 ;
374 [label="Avg_monthly_expense_on_pets_or_plants <= 0.802\nentropy = 1.5\nsamples = 4\nvalue = [0, 0, 0, 0, 0, 0, 0, 0, 0, 2, 1, 0, 1]\nclass = Turquoises", fillcolor="#9a39e555"] ;
360 -> 374 ;
375 [label="entropy = 0.0\nsamples = 2\nvalue = [0, 0, 0, 0, 0, 0, 0, 0, 0, 2, 0, 0, 0]\nclass = Turquoises", fillcolor="#9a39e5ff"] ;
374 -> 375 ;
376 [label="entropy = 1.0\nsamples = 2\nvalue = [0, 0, 0, 0, 0, 0, 0, 0, 0, 0, 1, 0, 1]\nclass = Violets", fillcolor="#e539e200"] ;
374 -> 376 ;
377 [label="Avg_Residancy_Altitude <= -0.33\nentropy = 1.686\nsamples = 11\nvalue = [0, 0, 0, 0, 0, 0, 0, 2, 2, 0, 0, 1, 6]\nclass = Yellows", fillcolor="#e5394171"] ;
359 -> 377 ;
378 [label="Avg_environmental_importance <= -0.017\nentropy = 1.522\nsamples = 5\nvalue = [0, 0, 0, 0, 0, 0, 0, 2, 2, 0, 0, 1, 0]\nclass = Purples", fillcolor="#3978e500"] ;
377 -> 378 ;
379 [label="entropy = 0.0\nsamples = 2\nvalue = [0, 0, 0, 0, 0, 0, 0, 2, 0, 0, 0, 0, 0]\nclass = Purples", fillcolor="#3978e5ff"] ;
378 -> 379 ;
380 [label="Weighted_education_rank <= -1.096\nentropy = 0.918\nsamples = 3\nvalue = [0, 0, 0, 0, 0, 0, 0, 0, 2, 0, 0, 1, 0]\nclass = Reds", fillcolor="#4a39e57f"] ;
378 -> 380 ;
381 [label="entropy = 0.0\nsamples = 1\nvalue = [0, 0, 0, 0, 0, 0, 0, 0, 0, 0, 0, 1, 0]\nclass = Whites", fillcolor="#e53992ff"] ;
380 -> 381 ;
382 [label="entropy = 0.0\nsamples = 2\nvalue = [0, 0, 0, 0, 0, 0, 0, 0, 2, 0, 0, 0, 0]\nclass = Reds", fillcolor="#4a39e5ff"] ;
380 -> 382 ;
383 [label="entropy = 0.0\nsamples = 6\nvalue = [0, 0, 0, 0, 0, 0, 0, 0, 0, 0, 0, 0, 6]\nclass = Yellows", fillcolor="#e53941ff"] ;
377 -> 383 ;
384 [label="Avg_environmental_importance <= 0.01\nentropy = 0.801\nsamples = 1316\nvalue = [9, 2, 0, 2, 17, 4, 1, 1164, 40, 5, 1, 11, 60]\nclass = Purples", fillcolor="#3978e5e0"] ;
2 -> 384 ;
385 [label="Avg_Residancy_Altitude <= 0.08\nentropy = 0.404\nsamples = 1204\nvalue = [5, 2, 0, 2, 11, 4, 1, 1148, 18, 3, 0, 6, 4]\nclass = Purples", fillcolor="#3978e5f3"] ;
384 -> 385 ;
386 [label="Number_of_valued_Kneset_members <= 0.452\nentropy = 0.245\nsamples = 1179\nvalue = [3, 2, 0, 2, 0, 3, 1, 1148, 11, 0, 0, 6, 3]\nclass = Purples", fillcolor="#3978e5f8"] ;
385 -> 386 ;
387 [label="Most_Important_Issue <= 0.5\nentropy = 0.657\nsamples = 267\nvalue = [1, 2, 0, 1, 0, 3, 1, 242, 11, 0, 0, 6, 0]\nclass = Purples", fillcolor="#3978e5e6"] ;
386 -> 387 ;
388 [label="Weighted_education_rank <= -0.987\nentropy = 1.686\nsamples = 11\nvalue = [0, 2, 0, 0, 0, 0, 1, 2, 0, 0, 0, 6, 0]\nclass = Whites", fillcolor="#e5399271"] ;
387 -> 388 ;
389 [label="entropy = 0.0\nsamples = 6\nvalue = [0, 0, 0, 0, 0, 0, 0, 0, 0, 0, 0, 6, 0]\nclass = Whites", fillcolor="#e53992ff"] ;
388 -> 389 ;
390 [label="Weighted_education_rank <= -0.93\nentropy = 1.522\nsamples = 5\nvalue = [0, 2, 0, 0, 0, 0, 1, 2, 0, 0, 0, 0, 0]\nclass = Browns", fillcolor="#e5ce3900"] ;
388 -> 390 ;
391 [label="entropy = 0.0\nsamples = 2\nvalue = [0, 2, 0, 0, 0, 0, 0, 0, 0, 0, 0, 0, 0]\nclass = Browns", fillcolor="#e5ce39ff"] ;
390 -> 391 ;
392 [label="Avg_monthly_expense_on_pets_or_plants <= -0.433\nentropy = 0.918\nsamples = 3\nvalue = [0, 0, 0, 0, 0, 0, 1, 2, 0, 0, 0, 0, 0]\nclass = Purples", fillcolor="#3978e57f"] ;
390 -> 392 ;
393 [label="entropy = 0.0\nsamples = 1\nvalue = [0, 0, 0, 0, 0, 0, 1, 0, 0, 0, 0, 0, 0]\nclass = Pinks", fillcolor="#39c5e5ff"] ;
392 -> 393 ;
394 [label="entropy = 0.0\nsamples = 2\nvalue = [0, 0, 0, 0, 0, 0, 0, 2, 0, 0, 0, 0, 0]\nclass = Purples", fillcolor="#3978e5ff"] ;
392 -> 394 ;
395 [label="Avg_education_importance <= 0.13\nentropy = 0.42\nsamples = 256\nvalue = [1, 0, 0, 1, 0, 3, 0, 240, 11, 0, 0, 0, 0]\nclass = Purples", fillcolor="#3978e5ee"] ;
387 -> 395 ;
396 [label="Avg_government_satisfaction <= 0.011\nentropy = 0.191\nsamples = 215\nvalue = [1, 0, 0, 1, 0, 3, 0, 210, 0, 0, 0, 0, 0]\nclass = Purples", fillcolor="#3978e5f9"] ;
395 -> 396 ;
397 [label="Avg_monthly_expense_on_pets_or_plants <= 2.004\nentropy = 0.044\nsamples = 209\nvalue = [1, 0, 0, 0, 0, 0, 0, 208, 0, 0, 0, 0, 0]\nclass = Purples", fillcolor="#3978e5fe"] ;
396 -> 397 ;
398 [label="entropy = 0.0\nsamples = 208\nvalue = [0, 0, 0, 0, 0, 0, 0, 208, 0, 0, 0, 0, 0]\nclass = Purples", fillcolor="#3978e5ff"] ;
397 -> 398 ;
399 [label="entropy = 0.0\nsamples = 1\nvalue = [1, 0, 0, 0, 0, 0, 0, 0, 0, 0, 0, 0, 0]\nclass = Blues", fillcolor="#e58139ff"] ;
397 -> 399 ;
400 [label="Avg_environmental_importance <= -0.198\nentropy = 1.459\nsamples = 6\nvalue = [0, 0, 0, 1, 0, 3, 0, 2, 0, 0, 0, 0, 0]\nclass = Oranges", fillcolor="#39e5b440"] ;
396 -> 400 ;
401 [label="entropy = 0.0\nsamples = 3\nvalue = [0, 0, 0, 0, 0, 3, 0, 0, 0, 0, 0, 0, 0]\nclass = Oranges", fillcolor="#39e5b4ff"] ;
400 -> 401 ;
402 [label="Most_Important_Issue <= 3.5\nentropy = 0.918\nsamples = 3\nvalue = [0, 0, 0, 1, 0, 0, 0, 2, 0, 0, 0, 0, 0]\nclass = Purples", fillcolor="#3978e57f"] ;
400 -> 402 ;
403 [label="entropy = 0.0\nsamples = 1\nvalue = [0, 0, 0, 1, 0, 0, 0, 0, 0, 0, 0, 0, 0]\nclass = Greys", fillcolor="#5be539ff"] ;
402 -> 403 ;
404 [label="entropy = 0.0\nsamples = 2\nvalue = [0, 0, 0, 0, 0, 0, 0, 2, 0, 0, 0, 0, 0]\nclass = Purples", fillcolor="#3978e5ff"] ;
402 -> 404 ;
405 [label="Avg_environmental_importance <= -0.045\nentropy = 0.839\nsamples = 41\nvalue = [0, 0, 0, 0, 0, 0, 0, 30, 11, 0, 0, 0, 0]\nclass = Purples", fillcolor="#3978e5a1"] ;
395 -> 405 ;
406 [label="Avg_government_satisfaction <= -0.086\nentropy = 0.65\nsamples = 36\nvalue = [0, 0, 0, 0, 0, 0, 0, 30, 6, 0, 0, 0, 0]\nclass = Purples", fillcolor="#3978e5cc"] ;
405 -> 406 ;
407 [label="entropy = 0.0\nsamples = 20\nvalue = [0, 0, 0, 0, 0, 0, 0, 20, 0, 0, 0, 0, 0]\nclass = Purples", fillcolor="#3978e5ff"] ;
406 -> 407 ;
408 [label="Avg_monthly_expense_on_pets_or_plants <= -0.678\nentropy = 0.954\nsamples = 16\nvalue = [0, 0, 0, 0, 0, 0, 0, 10, 6, 0, 0, 0, 0]\nclass = Purples", fillcolor="#3978e566"] ;
406 -> 408 ;
409 [label="entropy = 0.0\nsamples = 3\nvalue = [0, 0, 0, 0, 0, 0, 0, 0, 3, 0, 0, 0, 0]\nclass = Reds", fillcolor="#4a39e5ff"] ;
408 -> 409 ;
410 [label="Avg_Residancy_Altitude <= -0.518\nentropy = 0.779\nsamples = 13\nvalue = [0, 0, 0, 0, 0, 0, 0, 10, 3, 0, 0, 0, 0]\nclass = Purples", fillcolor="#3978e5b3"] ;
408 -> 410 ;
411 [label="Avg_monthly_expense_on_pets_or_plants <= -0.232\nentropy = 0.971\nsamples = 5\nvalue = [0, 0, 0, 0, 0, 0, 0, 2, 3, 0, 0, 0, 0]\nclass = Reds", fillcolor="#4a39e555"] ;
410 -> 411 ;
412 [label="entropy = 0.0\nsamples = 2\nvalue = [0, 0, 0, 0, 0, 0, 0, 2, 0, 0, 0, 0, 0]\nclass = Purples", fillcolor="#3978e5ff"] ;
411 -> 412 ;
413 [label="entropy = 0.0\nsamples = 3\nvalue = [0, 0, 0, 0, 0, 0, 0, 0, 3, 0, 0, 0, 0]\nclass = Reds", fillcolor="#4a39e5ff"] ;
411 -> 413 ;
414 [label="entropy = 0.0\nsamples = 8\nvalue = [0, 0, 0, 0, 0, 0, 0, 8, 0, 0, 0, 0, 0]\nclass = Purples", fillcolor="#3978e5ff"] ;
410 -> 414 ;
415 [label="entropy = 0.0\nsamples = 5\nvalue = [0, 0, 0, 0, 0, 0, 0, 0, 5, 0, 0, 0, 0]\nclass = Reds", fillcolor="#4a39e5ff"] ;
405 -> 415 ;
416 [label="Avg_government_satisfaction <= 0.017\nentropy = 0.067\nsamples = 912\nvalue = [2, 0, 0, 1, 0, 0, 0, 906, 0, 0, 0, 0, 3]\nclass = Purples", fillcolor="#3978e5fd"] ;
386 -> 416 ;
417 [label="Avg_monthly_expense_on_pets_or_plants <= 1.808\nentropy = 0.013\nsamples = 891\nvalue = [1, 0, 0, 0, 0, 0, 0, 890, 0, 0, 0, 0, 0]\nclass = Purples", fillcolor="#3978e5ff"] ;
416 -> 417 ;
418 [label="entropy = 0.0\nsamples = 890\nvalue = [0, 0, 0, 0, 0, 0, 0, 890, 0, 0, 0, 0, 0]\nclass = Purples", fillcolor="#3978e5ff"] ;
417 -> 418 ;
419 [label="entropy = 0.0\nsamples = 1\nvalue = [1, 0, 0, 0, 0, 0, 0, 0, 0, 0, 0, 0, 0]\nclass = Blues", fillcolor="#e58139ff"] ;
417 -> 419 ;
420 [label="Avg_education_importance <= -0.134\nentropy = 1.118\nsamples = 21\nvalue = [1, 0, 0, 1, 0, 0, 0, 16, 0, 0, 0, 0, 3]\nclass = Purples", fillcolor="#3978e5b8"] ;
416 -> 420 ;
421 [label="Avg_Residancy_Altitude <= -0.473\nentropy = 1.371\nsamples = 5\nvalue = [1, 0, 0, 1, 0, 0, 0, 0, 0, 0, 0, 0, 3]\nclass = Yellows", fillcolor="#e539417f"] ;
420 -> 421 ;
422 [label="entropy = 0.0\nsamples = 1\nvalue = [0, 0, 0, 1, 0, 0, 0, 0, 0, 0, 0, 0, 0]\nclass = Greys", fillcolor="#5be539ff"] ;
421 -> 422 ;
423 [label="Weighted_education_rank <= -0.672\nentropy = 0.811\nsamples = 4\nvalue = [1, 0, 0, 0, 0, 0, 0, 0, 0, 0, 0, 0, 3]\nclass = Yellows", fillcolor="#e53941aa"] ;
421 -> 423 ;
424 [label="entropy = 0.0\nsamples = 3\nvalue = [0, 0, 0, 0, 0, 0, 0, 0, 0, 0, 0, 0, 3]\nclass = Yellows", fillcolor="#e53941ff"] ;
423 -> 424 ;
425 [label="entropy = 0.0\nsamples = 1\nvalue = [1, 0, 0, 0, 0, 0, 0, 0, 0, 0, 0, 0, 0]\nclass = Blues", fillcolor="#e58139ff"] ;
423 -> 425 ;
426 [label="entropy = 0.0\nsamples = 16\nvalue = [0, 0, 0, 0, 0, 0, 0, 16, 0, 0, 0, 0, 0]\nclass = Purples", fillcolor="#3978e5ff"] ;
420 -> 426 ;
427 [label="Avg_education_importance <= 0.007\nentropy = 2.065\nsamples = 25\nvalue = [2, 0, 0, 0, 11, 1, 0, 0, 7, 3, 0, 0, 1]\nclass = Khakis", fillcolor="#39e56439"] ;
385 -> 427 ;
428 [label="Avg_government_satisfaction <= -0.171\nentropy = 1.053\nsamples = 15\nvalue = [1, 0, 0, 0, 11, 0, 0, 0, 0, 3, 0, 0, 0]\nclass = Khakis", fillcolor="#39e564aa"] ;
427 -> 428 ;
429 [label="entropy = 0.0\nsamples = 3\nvalue = [0, 0, 0, 0, 0, 0, 0, 0, 0, 3, 0, 0, 0]\nclass = Turquoises", fillcolor="#9a39e5ff"] ;
428 -> 429 ;
430 [label="Avg_monthly_expense_on_pets_or_plants <= -1.105\nentropy = 0.414\nsamples = 12\nvalue = [1, 0, 0, 0, 11, 0, 0, 0, 0, 0, 0, 0, 0]\nclass = Khakis", fillcolor="#39e564e8"] ;
428 -> 430 ;
431 [label="entropy = 0.0\nsamples = 1\nvalue = [1, 0, 0, 0, 0, 0, 0, 0, 0, 0, 0, 0, 0]\nclass = Blues", fillcolor="#e58139ff"] ;
430 -> 431 ;
432 [label="entropy = 0.0\nsamples = 11\nvalue = [0, 0, 0, 0, 11, 0, 0, 0, 0, 0, 0, 0, 0]\nclass = Khakis", fillcolor="#39e564ff"] ;
430 -> 432 ;
433 [label="Avg_Residancy_Altitude <= 0.351\nentropy = 1.357\nsamples = 10\nvalue = [1, 0, 0, 0, 0, 1, 0, 0, 7, 0, 0, 0, 1]\nclass = Reds", fillcolor="#4a39e5aa"] ;
427 -> 433 ;
434 [label="Number_of_valued_Kneset_members <= 1.143\nentropy = 0.544\nsamples = 8\nvalue = [0, 0, 0, 0, 0, 0, 0, 0, 7, 0, 0, 0, 1]\nclass = Reds", fillcolor="#4a39e5db"] ;
433 -> 434 ;
435 [label="entropy = 0.0\nsamples = 7\nvalue = [0, 0, 0, 0, 0, 0, 0, 0, 7, 0, 0, 0, 0]\nclass = Reds", fillcolor="#4a39e5ff"] ;
434 -> 435 ;
436 [label="entropy = 0.0\nsamples = 1\nvalue = [0, 0, 0, 0, 0, 0, 0, 0, 0, 0, 0, 0, 1]\nclass = Yellows", fillcolor="#e53941ff"] ;
434 -> 436 ;
437 [label="entropy = 1.0\nsamples = 2\nvalue = [1, 0, 0, 0, 0, 1, 0, 0, 0, 0, 0, 0, 0]\nclass = Blues", fillcolor="#e5813900"] ;
433 -> 437 ;
438 [label="Number_of_valued_Kneset_members <= 0.281\nentropy = 2.125\nsamples = 112\nvalue = [4, 0, 0, 0, 6, 0, 0, 16, 22, 2, 1, 5, 56]\nclass = Yellows", fillcolor="#e5394160"] ;
384 -> 438 ;
439 [label="Most_Important_Issue <= 5.0\nentropy = 1.884\nsamples = 50\nvalue = [1, 0, 0, 0, 0, 0, 0, 7, 22, 0, 0, 5, 15]\nclass = Reds", fillcolor="#4a39e533"] ;
438 -> 439 ;
440 [label="Weighted_education_rank <= -0.738\nentropy = 1.496\nsamples = 18\nvalue = [0, 0, 0, 0, 0, 0, 0, 4, 0, 0, 0, 5, 9]\nclass = Yellows", fillcolor="#e539414e"] ;
439 -> 440 ;
441 [label="Most_Important_Issue <= 0.5\nentropy = 0.991\nsamples = 9\nvalue = [0, 0, 0, 0, 0, 0, 0, 4, 0, 0, 0, 5, 0]\nclass = Whites", fillcolor="#e5399233"] ;
440 -> 441 ;
442 [label="entropy = 0.0\nsamples = 5\nvalue = [0, 0, 0, 0, 0, 0, 0, 0, 0, 0, 0, 5, 0]\nclass = Whites", fillcolor="#e53992ff"] ;
441 -> 442 ;
443 [label="entropy = 0.0\nsamples = 4\nvalue = [0, 0, 0, 0, 0, 0, 0, 4, 0, 0, 0, 0, 0]\nclass = Purples", fillcolor="#3978e5ff"] ;
441 -> 443 ;
444 [label="entropy = 0.0\nsamples = 9\nvalue = [0, 0, 0, 0, 0, 0, 0, 0, 0, 0, 0, 0, 9]\nclass = Yellows", fillcolor="#e53941ff"] ;
440 -> 444 ;
445 [label="Most_Important_Issue <= 6.5\nentropy = 1.301\nsamples = 32\nvalue = [1, 0, 0, 0, 0, 0, 0, 3, 22, 0, 0, 0, 6]\nclass = Reds", fillcolor="#4a39e59d"] ;
439 -> 445 ;
446 [label="entropy = 0.0\nsamples = 22\nvalue = [0, 0, 0, 0, 0, 0, 0, 0, 22, 0, 0, 0, 0]\nclass = Reds", fillcolor="#4a39e5ff"] ;
445 -> 446 ;
447 [label="Avg_monthly_expense_on_pets_or_plants <= 2.304\nentropy = 1.295\nsamples = 10\nvalue = [1, 0, 0, 0, 0, 0, 0, 3, 0, 0, 0, 0, 6]\nclass = Yellows", fillcolor="#e539416d"] ;
445 -> 447 ;
448 [label="Avg_environmental_importance <= 0.021\nentropy = 0.918\nsamples = 9\nvalue = [0, 0, 0, 0, 0, 0, 0, 3, 0, 0, 0, 0, 6]\nclass = Yellows", fillcolor="#e539417f"] ;
447 -> 448 ;
449 [label="entropy = 0.0\nsamples = 2\nvalue = [0, 0, 0, 0, 0, 0, 0, 2, 0, 0, 0, 0, 0]\nclass = Purples", fillcolor="#3978e5ff"] ;
448 -> 449 ;
450 [label="Avg_Residancy_Altitude <= -0.539\nentropy = 0.592\nsamples = 7\nvalue = [0, 0, 0, 0, 0, 0, 0, 1, 0, 0, 0, 0, 6]\nclass = Yellows", fillcolor="#e53941d4"] ;
448 -> 450 ;
451 [label="entropy = 0.0\nsamples = 1\nvalue = [0, 0, 0, 0, 0, 0, 0, 1, 0, 0, 0, 0, 0]\nclass = Purples", fillcolor="#3978e5ff"] ;
450 -> 451 ;
452 [label="entropy = 0.0\nsamples = 6\nvalue = [0, 0, 0, 0, 0, 0, 0, 0, 0, 0, 0, 0, 6]\nclass = Yellows", fillcolor="#e53941ff"] ;
450 -> 452 ;
453 [label="entropy = 0.0\nsamples = 1\nvalue = [1, 0, 0, 0, 0, 0, 0, 0, 0, 0, 0, 0, 0]\nclass = Blues", fillcolor="#e58139ff"] ;
447 -> 453 ;
454 [label="Avg_Residancy_Altitude <= -0.315\nentropy = 1.592\nsamples = 62\nvalue = [3, 0, 0, 0, 6, 0, 0, 9, 0, 2, 1, 0, 41]\nclass = Yellows", fillcolor="#e539419a"] ;
438 -> 454 ;
455 [label="Avg_monthly_expense_on_pets_or_plants <= 2.11\nentropy = 0.544\nsamples = 8\nvalue = [1, 0, 0, 0, 0, 0, 0, 7, 0, 0, 0, 0, 0]\nclass = Purples", fillcolor="#3978e5db"] ;
454 -> 455 ;
456 [label="entropy = 0.0\nsamples = 7\nvalue = [0, 0, 0, 0, 0, 0, 0, 7, 0, 0, 0, 0, 0]\nclass = Purples", fillcolor="#3978e5ff"] ;
455 -> 456 ;
457 [label="entropy = 0.0\nsamples = 1\nvalue = [1, 0, 0, 0, 0, 0, 0, 0, 0, 0, 0, 0, 0]\nclass = Blues", fillcolor="#e58139ff"] ;
455 -> 457 ;
458 [label="Avg_monthly_expense_on_pets_or_plants <= 1.007\nentropy = 1.289\nsamples = 54\nvalue = [2, 0, 0, 0, 6, 0, 0, 2, 0, 2, 1, 0, 41]\nclass = Yellows", fillcolor="#e53941ba"] ;
454 -> 458 ;
459 [label="Avg_environmental_importance <= 0.092\nentropy = 1.696\nsamples = 26\nvalue = [0, 0, 0, 0, 6, 0, 0, 2, 0, 2, 1, 0, 15]\nclass = Yellows", fillcolor="#e5394173"] ;
458 -> 459 ;
460 [label="Avg_government_satisfaction <= 0.07\nentropy = 1.252\nsamples = 12\nvalue = [0, 0, 0, 0, 0, 0, 0, 2, 0, 2, 0, 0, 8]\nclass = Yellows", fillcolor="#e5394199"] ;
459 -> 460 ;
461 [label="Avg_education_importance <= -0.017\nentropy = 0.764\nsamples = 9\nvalue = [0, 0, 0, 0, 0, 0, 0, 2, 0, 0, 0, 0, 7]\nclass = Yellows", fillcolor="#e53941b6"] ;
460 -> 461 ;
462 [label="Weighted_education_rank <= -0.792\nentropy = 0.918\nsamples = 3\nvalue = [0, 0, 0, 0, 0, 0, 0, 2, 0, 0, 0, 0, 1]\nclass = Purples", fillcolor="#3978e57f"] ;
461 -> 462 ;
463 [label="entropy = 0.0\nsamples = 2\nvalue = [0, 0, 0, 0, 0, 0, 0, 2, 0, 0, 0, 0, 0]\nclass = Purples", fillcolor="#3978e5ff"] ;
462 -> 463 ;
464 [label="entropy = 0.0\nsamples = 1\nvalue = [0, 0, 0, 0, 0, 0, 0, 0, 0, 0, 0, 0, 1]\nclass = Yellows", fillcolor="#e53941ff"] ;
462 -> 464 ;
465 [label="entropy = 0.0\nsamples = 6\nvalue = [0, 0, 0, 0, 0, 0, 0, 0, 0, 0, 0, 0, 6]\nclass = Yellows", fillcolor="#e53941ff"] ;
461 -> 465 ;
466 [label="Most_Important_Issue <= 2.0\nentropy = 0.918\nsamples = 3\nvalue = [0, 0, 0, 0, 0, 0, 0, 0, 0, 2, 0, 0, 1]\nclass = Turquoises", fillcolor="#9a39e57f"] ;
460 -> 466 ;
467 [label="entropy = 0.0\nsamples = 1\nvalue = [0, 0, 0, 0, 0, 0, 0, 0, 0, 0, 0, 0, 1]\nclass = Yellows", fillcolor="#e53941ff"] ;
466 -> 467 ;
468 [label="entropy = 0.0\nsamples = 2\nvalue = [0, 0, 0, 0, 0, 0, 0, 0, 0, 2, 0, 0, 0]\nclass = Turquoises", fillcolor="#9a39e5ff"] ;
466 -> 468 ;
469 [label="Avg_Residancy_Altitude <= 0.605\nentropy = 1.296\nsamples = 14\nvalue = [0, 0, 0, 0, 6, 0, 0, 0, 0, 0, 1, 0, 7]\nclass = Yellows", fillcolor="#e5394120"] ;
459 -> 469 ;
470 [label="Yearly_ExpensesK <= 0.514\nentropy = 0.881\nsamples = 10\nvalue = [0, 0, 0, 0, 3, 0, 0, 0, 0, 0, 0, 0, 7]\nclass = Yellows", fillcolor="#e5394192"] ;
469 -> 470 ;
471 [label="entropy = 0.0\nsamples = 6\nvalue = [0, 0, 0, 0, 0, 0, 0, 0, 0, 0, 0, 0, 6]\nclass = Yellows", fillcolor="#e53941ff"] ;
470 -> 471 ;
472 [label="Avg_monthly_expense_on_pets_or_plants <= -0.989\nentropy = 0.811\nsamples = 4\nvalue = [0, 0, 0, 0, 3, 0, 0, 0, 0, 0, 0, 0, 1]\nclass = Khakis", fillcolor="#39e564aa"] ;
470 -> 472 ;
473 [label="entropy = 0.0\nsamples = 1\nvalue = [0, 0, 0, 0, 0, 0, 0, 0, 0, 0, 0, 0, 1]\nclass = Yellows", fillcolor="#e53941ff"] ;
472 -> 473 ;
474 [label="entropy = 0.0\nsamples = 3\nvalue = [0, 0, 0, 0, 3, 0, 0, 0, 0, 0, 0, 0, 0]\nclass = Khakis", fillcolor="#39e564ff"] ;
472 -> 474 ;
475 [label="Avg_government_satisfaction <= 0.167\nentropy = 0.811\nsamples = 4\nvalue = [0, 0, 0, 0, 3, 0, 0, 0, 0, 0, 1, 0, 0]\nclass = Khakis", fillcolor="#39e564aa"] ;
469 -> 475 ;
476 [label="entropy = 0.0\nsamples = 3\nvalue = [0, 0, 0, 0, 3, 0, 0, 0, 0, 0, 0, 0, 0]\nclass = Khakis", fillcolor="#39e564ff"] ;
475 -> 476 ;
477 [label="entropy = 0.0\nsamples = 1\nvalue = [0, 0, 0, 0, 0, 0, 0, 0, 0, 0, 1, 0, 0]\nclass = Violets", fillcolor="#e539e2ff"] ;
475 -> 477 ;
478 [label="Avg_monthly_expense_on_pets_or_plants <= 1.961\nentropy = 0.371\nsamples = 28\nvalue = [2, 0, 0, 0, 0, 0, 0, 0, 0, 0, 0, 0, 26]\nclass = Yellows", fillcolor="#e53941eb"] ;
458 -> 478 ;
479 [label="entropy = 0.0\nsamples = 23\nvalue = [0, 0, 0, 0, 0, 0, 0, 0, 0, 0, 0, 0, 23]\nclass = Yellows", fillcolor="#e53941ff"] ;
478 -> 479 ;
480 [label="Avg_government_satisfaction <= -0.304\nentropy = 0.971\nsamples = 5\nvalue = [2, 0, 0, 0, 0, 0, 0, 0, 0, 0, 0, 0, 3]\nclass = Yellows", fillcolor="#e5394155"] ;
478 -> 480 ;
481 [label="entropy = 0.0\nsamples = 2\nvalue = [0, 0, 0, 0, 0, 0, 0, 0, 0, 0, 0, 0, 2]\nclass = Yellows", fillcolor="#e53941ff"] ;
480 -> 481 ;
482 [label="Avg_government_satisfaction <= -0.013\nentropy = 0.918\nsamples = 3\nvalue = [2, 0, 0, 0, 0, 0, 0, 0, 0, 0, 0, 0, 1]\nclass = Blues", fillcolor="#e581397f"] ;
480 -> 482 ;
483 [label="entropy = 0.0\nsamples = 2\nvalue = [2, 0, 0, 0, 0, 0, 0, 0, 0, 0, 0, 0, 0]\nclass = Blues", fillcolor="#e58139ff"] ;
482 -> 483 ;
484 [label="entropy = 0.0\nsamples = 1\nvalue = [0, 0, 0, 0, 0, 0, 0, 0, 0, 0, 0, 0, 1]\nclass = Yellows", fillcolor="#e53941ff"] ;
482 -> 484 ;
485 [label="Avg_education_importance <= 0.166\nentropy = 3.091\nsamples = 1597\nvalue = [50, 321, 350, 4, 101, 176, 196, 116, 4, 16, 15\n98, 150]\nclass = Greens", fillcolor="#ace53906"] ;
1 -> 485 ;
486 [label="Avg_education_importance <= -0.141\nentropy = 2.857\nsamples = 1029\nvalue = [32, 321, 3, 4, 58, 104, 194, 110, 2, 5, 13, 98\n85]\nclass = Browns", fillcolor="#e5ce3927"] ;
485 -> 486 ;
487 [label="Number_of_valued_Kneset_members <= -0.019\nentropy = 2.177\nsamples = 567\nvalue = [19, 311, 0, 1, 50, 50, 24, 31, 0, 4, 4, 0, 73]\nclass = Browns", fillcolor="#e5ce397b"] ;
486 -> 487 ;
488 [label="Avg_environmental_importance <= -0.286\nentropy = 1.432\nsamples = 423\nvalue = [4, 311, 0, 0, 12, 46, 19, 5, 0, 2, 0, 0, 24]\nclass = Browns", fillcolor="#e5ce39b3"] ;
487 -> 488 ;
489 [label="Avg_government_satisfaction <= -0.118\nentropy = 1.018\nsamples = 366\nvalue = [1, 304, 0, 0, 9, 10, 18, 2, 0, 0, 0, 0, 22]\nclass = Browns", fillcolor="#e5ce39d1"] ;
488 -> 489 ;
490 [label="Avg_Residancy_Altitude <= 0.147\nentropy = 0.734\nsamples = 344\nvalue = [0, 304, 0, 0, 5, 2, 18, 2, 0, 0, 0, 0, 13]\nclass = Browns", fillcolor="#e5ce39e0"] ;
489 -> 490 ;
491 [label="Avg_government_satisfaction <= -0.301\nentropy = 0.587\nsamples = 334\nvalue = [0, 304, 0, 0, 2, 2, 18, 2, 0, 0, 0, 0, 6]\nclass = Browns", fillcolor="#e5ce39e7"] ;
490 -> 491 ;
492 [label="Avg_government_satisfaction <= -0.331\nentropy = 1.746\nsamples = 26\nvalue = [0, 14, 0, 0, 1, 0, 4, 1, 0, 0, 0, 0, 6]\nclass = Browns", fillcolor="#e5ce3966"] ;
491 -> 492 ;
493 [label="Avg_education_importance <= -0.193\nentropy = 1.449\nsamples = 7\nvalue = [0, 0, 0, 0, 1, 0, 3, 0, 0, 0, 0, 0, 3]\nclass = Pinks", fillcolor="#39c5e500"] ;
492 -> 493 ;
494 [label="Avg_education_importance <= -0.617\nentropy = 0.811\nsamples = 4\nvalue = [0, 0, 0, 0, 1, 0, 3, 0, 0, 0, 0, 0, 0]\nclass = Pinks", fillcolor="#39c5e5aa"] ;
493 -> 494 ;
495 [label="entropy = 0.0\nsamples = 1\nvalue = [0, 0, 0, 0, 1, 0, 0, 0, 0, 0, 0, 0, 0]\nclass = Khakis", fillcolor="#39e564ff"] ;
494 -> 495 ;
496 [label="entropy = 0.0\nsamples = 3\nvalue = [0, 0, 0, 0, 0, 0, 3, 0, 0, 0, 0, 0, 0]\nclass = Pinks", fillcolor="#39c5e5ff"] ;
494 -> 496 ;
497 [label="entropy = 0.0\nsamples = 3\nvalue = [0, 0, 0, 0, 0, 0, 0, 0, 0, 0, 0, 0, 3]\nclass = Yellows", fillcolor="#e53941ff"] ;
493 -> 497 ;
498 [label="Avg_education_importance <= -0.173\nentropy = 1.192\nsamples = 19\nvalue = [0, 14, 0, 0, 0, 0, 1, 1, 0, 0, 0, 0, 3]\nclass = Browns", fillcolor="#e5ce39af"] ;
492 -> 498 ;
499 [label="Avg_monthly_expense_on_pets_or_plants <= 1.243\nentropy = 0.544\nsamples = 16\nvalue = [0, 14, 0, 0, 0, 0, 0, 0, 0, 0, 0, 0, 2]\nclass = Browns", fillcolor="#e5ce39db"] ;
498 -> 499 ;
500 [label="entropy = 0.0\nsamples = 14\nvalue = [0, 14, 0, 0, 0, 0, 0, 0, 0, 0, 0, 0, 0]\nclass = Browns", fillcolor="#e5ce39ff"] ;
499 -> 500 ;
501 [label="entropy = 0.0\nsamples = 2\nvalue = [0, 0, 0, 0, 0, 0, 0, 0, 0, 0, 0, 0, 2]\nclass = Yellows", fillcolor="#e53941ff"] ;
499 -> 501 ;
502 [label="Avg_Residancy_Altitude <= -0.533\nentropy = 1.585\nsamples = 3\nvalue = [0, 0, 0, 0, 0, 0, 1, 1, 0, 0, 0, 0, 1]\nclass = Pinks", fillcolor="#39c5e500"] ;
498 -> 502 ;
503 [label="entropy = 0.0\nsamples = 1\nvalue = [0, 0, 0, 0, 0, 0, 0, 1, 0, 0, 0, 0, 0]\nclass = Purples", fillcolor="#3978e5ff"] ;
502 -> 503 ;
504 [label="entropy = 1.0\nsamples = 2\nvalue = [0, 0, 0, 0, 0, 0, 1, 0, 0, 0, 0, 0, 1]\nclass = Pinks", fillcolor="#39c5e500"] ;
502 -> 504 ;
505 [label="Avg_environmental_importance <= -0.436\nentropy = 0.385\nsamples = 308\nvalue = [0, 290, 0, 0, 1, 2, 14, 1, 0, 0, 0, 0, 0]\nclass = Browns", fillcolor="#e5ce39ef"] ;
491 -> 505 ;
506 [label="Avg_government_satisfaction <= -0.231\nentropy = 1.245\nsamples = 19\nvalue = [0, 9, 0, 0, 1, 0, 9, 0, 0, 0, 0, 0, 0]\nclass = Browns", fillcolor="#e5ce3900"] ;
505 -> 506 ;
507 [label="Yearly_ExpensesK <= -0.361\nentropy = 0.845\nsamples = 11\nvalue = [0, 8, 0, 0, 0, 0, 3, 0, 0, 0, 0, 0, 0]\nclass = Browns", fillcolor="#e5ce399f"] ;
506 -> 507 ;
508 [label="entropy = 0.0\nsamples = 4\nvalue = [0, 4, 0, 0, 0, 0, 0, 0, 0, 0, 0, 0, 0]\nclass = Browns", fillcolor="#e5ce39ff"] ;
507 -> 508 ;
509 [label="Number_of_valued_Kneset_members <= -1.223\nentropy = 0.985\nsamples = 7\nvalue = [0, 4, 0, 0, 0, 0, 3, 0, 0, 0, 0, 0, 0]\nclass = Browns", fillcolor="#e5ce3940"] ;
507 -> 509 ;
510 [label="Yearly_ExpensesK <= 0.449\nentropy = 0.722\nsamples = 5\nvalue = [0, 4, 0, 0, 0, 0, 1, 0, 0, 0, 0, 0, 0]\nclass = Browns", fillcolor="#e5ce39bf"] ;
509 -> 510 ;
511 [label="entropy = 0.0\nsamples = 4\nvalue = [0, 4, 0, 0, 0, 0, 0, 0, 0, 0, 0, 0, 0]\nclass = Browns", fillcolor="#e5ce39ff"] ;
510 -> 511 ;
512 [label="entropy = 0.0\nsamples = 1\nvalue = [0, 0, 0, 0, 0, 0, 1, 0, 0, 0, 0, 0, 0]\nclass = Pinks", fillcolor="#39c5e5ff"] ;
510 -> 512 ;
513 [label="entropy = 0.0\nsamples = 2\nvalue = [0, 0, 0, 0, 0, 0, 2, 0, 0, 0, 0, 0, 0]\nclass = Pinks", fillcolor="#39c5e5ff"] ;
509 -> 513 ;
514 [label="Number_of_valued_Kneset_members <= -1.599\nentropy = 1.061\nsamples = 8\nvalue = [0, 1, 0, 0, 1, 0, 6, 0, 0, 0, 0, 0, 0]\nclass = Pinks", fillcolor="#39c5e5b6"] ;
506 -> 514 ;
515 [label="entropy = 0.0\nsamples = 1\nvalue = [0, 1, 0, 0, 0, 0, 0, 0, 0, 0, 0, 0, 0]\nclass = Browns", fillcolor="#e5ce39ff"] ;
514 -> 515 ;
516 [label="Avg_education_importance <= -0.301\nentropy = 0.592\nsamples = 7\nvalue = [0, 0, 0, 0, 1, 0, 6, 0, 0, 0, 0, 0, 0]\nclass = Pinks", fillcolor="#39c5e5d4"] ;
514 -> 516 ;
517 [label="entropy = 0.0\nsamples = 1\nvalue = [0, 0, 0, 0, 1, 0, 0, 0, 0, 0, 0, 0, 0]\nclass = Khakis", fillcolor="#39e564ff"] ;
516 -> 517 ;
518 [label="entropy = 0.0\nsamples = 6\nvalue = [0, 0, 0, 0, 0, 0, 6, 0, 0, 0, 0, 0, 0]\nclass = Pinks", fillcolor="#39c5e5ff"] ;
516 -> 518 ;
519 [label="Avg_education_importance <= -0.172\nentropy = 0.219\nsamples = 289\nvalue = [0, 281, 0, 0, 0, 2, 5, 1, 0, 0, 0, 0, 0]\nclass = Browns", fillcolor="#e5ce39f8"] ;
505 -> 519 ;
520 [label="Most_Important_Issue <= 4.5\nentropy = 0.147\nsamples = 241\nvalue = [0, 237, 0, 0, 0, 2, 1, 1, 0, 0, 0, 0, 0]\nclass = Browns", fillcolor="#e5ce39fb"] ;
519 -> 520 ;
521 [label="Avg_education_importance <= -0.261\nentropy = 0.046\nsamples = 195\nvalue = [0, 194, 0, 0, 0, 0, 0, 1, 0, 0, 0, 0, 0]\nclass = Browns", fillcolor="#e5ce39fe"] ;
520 -> 521 ;
522 [label="Avg_government_satisfaction <= -0.224\nentropy = 0.722\nsamples = 5\nvalue = [0, 4, 0, 0, 0, 0, 0, 1, 0, 0, 0, 0, 0]\nclass = Browns", fillcolor="#e5ce39bf"] ;
521 -> 522 ;
523 [label="entropy = 0.0\nsamples = 4\nvalue = [0, 4, 0, 0, 0, 0, 0, 0, 0, 0, 0, 0, 0]\nclass = Browns", fillcolor="#e5ce39ff"] ;
522 -> 523 ;
524 [label="entropy = 0.0\nsamples = 1\nvalue = [0, 0, 0, 0, 0, 0, 0, 1, 0, 0, 0, 0, 0]\nclass = Purples", fillcolor="#3978e5ff"] ;
522 -> 524 ;
525 [label="entropy = 0.0\nsamples = 190\nvalue = [0, 190, 0, 0, 0, 0, 0, 0, 0, 0, 0, 0, 0]\nclass = Browns", fillcolor="#e5ce39ff"] ;
521 -> 525 ;
526 [label="Number_of_valued_Kneset_members <= -1.223\nentropy = 0.408\nsamples = 46\nvalue = [0, 43, 0, 0, 0, 2, 1, 0, 0, 0, 0, 0, 0]\nclass = Browns", fillcolor="#e5ce39ee"] ;
520 -> 526 ;
527 [label="entropy = 0.0\nsamples = 43\nvalue = [0, 43, 0, 0, 0, 0, 0, 0, 0, 0, 0, 0, 0]\nclass = Browns", fillcolor="#e5ce39ff"] ;
526 -> 527 ;
528 [label="Avg_monthly_expense_on_pets_or_plants <= 0.146\nentropy = 0.918\nsamples = 3\nvalue = [0, 0, 0, 0, 0, 2, 1, 0, 0, 0, 0, 0, 0]\nclass = Oranges", fillcolor="#39e5b47f"] ;
526 -> 528 ;
529 [label="entropy = 0.0\nsamples = 2\nvalue = [0, 0, 0, 0, 0, 2, 0, 0, 0, 0, 0, 0, 0]\nclass = Oranges", fillcolor="#39e5b4ff"] ;
528 -> 529 ;
530 [label="entropy = 0.0\nsamples = 1\nvalue = [0, 0, 0, 0, 0, 0, 1, 0, 0, 0, 0, 0, 0]\nclass = Pinks", fillcolor="#39c5e5ff"] ;
528 -> 530 ;
531 [label="Weighted_education_rank <= -0.284\nentropy = 0.414\nsamples = 48\nvalue = [0, 44, 0, 0, 0, 0, 4, 0, 0, 0, 0, 0, 0]\nclass = Browns", fillcolor="#e5ce39e8"] ;
519 -> 531 ;
532 [label="Weighted_education_rank <= -0.46\nentropy = 0.156\nsamples = 44\nvalue = [0, 43, 0, 0, 0, 0, 1, 0, 0, 0, 0, 0, 0]\nclass = Browns", fillcolor="#e5ce39f9"] ;
531 -> 532 ;
533 [label="entropy = 0.0\nsamples = 1\nvalue = [0, 0, 0, 0, 0, 0, 1, 0, 0, 0, 0, 0, 0]\nclass = Pinks", fillcolor="#39c5e5ff"] ;
532 -> 533 ;
534 [label="entropy = 0.0\nsamples = 43\nvalue = [0, 43, 0, 0, 0, 0, 0, 0, 0, 0, 0, 0, 0]\nclass = Browns", fillcolor="#e5ce39ff"] ;
532 -> 534 ;
535 [label="Avg_environmental_importance <= -0.425\nentropy = 0.811\nsamples = 4\nvalue = [0, 1, 0, 0, 0, 0, 3, 0, 0, 0, 0, 0, 0]\nclass = Pinks", fillcolor="#39c5e5aa"] ;
531 -> 535 ;
536 [label="entropy = 0.0\nsamples = 1\nvalue = [0, 1, 0, 0, 0, 0, 0, 0, 0, 0, 0, 0, 0]\nclass = Browns", fillcolor="#e5ce39ff"] ;
535 -> 536 ;
537 [label="entropy = 0.0\nsamples = 3\nvalue = [0, 0, 0, 0, 0, 0, 3, 0, 0, 0, 0, 0, 0]\nclass = Pinks", fillcolor="#39c5e5ff"] ;
535 -> 537 ;
538 [label="Avg_education_importance <= -0.397\nentropy = 0.881\nsamples = 10\nvalue = [0, 0, 0, 0, 3, 0, 0, 0, 0, 0, 0, 0, 7]\nclass = Yellows", fillcolor="#e5394192"] ;
490 -> 538 ;
539 [label="entropy = 0.0\nsamples = 3\nvalue = [0, 0, 0, 0, 3, 0, 0, 0, 0, 0, 0, 0, 0]\nclass = Khakis", fillcolor="#39e564ff"] ;
538 -> 539 ;
540 [label="entropy = 0.0\nsamples = 7\nvalue = [0, 0, 0, 0, 0, 0, 0, 0, 0, 0, 0, 0, 7]\nclass = Yellows", fillcolor="#e53941ff"] ;
538 -> 540 ;
541 [label="Avg_government_satisfaction <= 0.017\nentropy = 1.708\nsamples = 22\nvalue = [1, 0, 0, 0, 4, 8, 0, 0, 0, 0, 0, 0, 9]\nclass = Yellows", fillcolor="#e5394112"] ;
489 -> 541 ;
542 [label="Avg_Residancy_Altitude <= 0.373\nentropy = 0.985\nsamples = 7\nvalue = [0, 0, 0, 0, 4, 3, 0, 0, 0, 0, 0, 0, 0]\nclass = Khakis", fillcolor="#39e56440"] ;
541 -> 542 ;
543 [label="Weighted_education_rank <= -0.212\nentropy = 0.811\nsamples = 4\nvalue = [0, 0, 0, 0, 1, 3, 0, 0, 0, 0, 0, 0, 0]\nclass = Oranges", fillcolor="#39e5b4aa"] ;
542 -> 543 ;
544 [label="entropy = 0.0\nsamples = 3\nvalue = [0, 0, 0, 0, 0, 3, 0, 0, 0, 0, 0, 0, 0]\nclass = Oranges", fillcolor="#39e5b4ff"] ;
543 -> 544 ;
545 [label="entropy = 0.0\nsamples = 1\nvalue = [0, 0, 0, 0, 1, 0, 0, 0, 0, 0, 0, 0, 0]\nclass = Khakis", fillcolor="#39e564ff"] ;
543 -> 545 ;
546 [label="entropy = 0.0\nsamples = 3\nvalue = [0, 0, 0, 0, 3, 0, 0, 0, 0, 0, 0, 0, 0]\nclass = Khakis", fillcolor="#39e564ff"] ;
542 -> 546 ;
547 [label="Most_Important_Issue <= 4.5\nentropy = 1.231\nsamples = 15\nvalue = [1, 0, 0, 0, 0, 5, 0, 0, 0, 0, 0, 0, 9]\nclass = Yellows", fillcolor="#e5394166"] ;
541 -> 547 ;
548 [label="Avg_government_satisfaction <= 0.227\nentropy = 0.544\nsamples = 8\nvalue = [1, 0, 0, 0, 0, 0, 0, 0, 0, 0, 0, 0, 7]\nclass = Yellows", fillcolor="#e53941db"] ;
547 -> 548 ;
549 [label="entropy = 0.0\nsamples = 7\nvalue = [0, 0, 0, 0, 0, 0, 0, 0, 0, 0, 0, 0, 7]\nclass = Yellows", fillcolor="#e53941ff"] ;
548 -> 549 ;
550 [label="entropy = 0.0\nsamples = 1\nvalue = [1, 0, 0, 0, 0, 0, 0, 0, 0, 0, 0, 0, 0]\nclass = Blues", fillcolor="#e58139ff"] ;
548 -> 550 ;
551 [label="Avg_monthly_expense_on_pets_or_plants <= -1.096\nentropy = 0.863\nsamples = 7\nvalue = [0, 0, 0, 0, 0, 5, 0, 0, 0, 0, 0, 0, 2]\nclass = Oranges", fillcolor="#39e5b499"] ;
547 -> 551 ;
552 [label="entropy = 0.0\nsamples = 2\nvalue = [0, 0, 0, 0, 0, 0, 0, 0, 0, 0, 0, 0, 2]\nclass = Yellows", fillcolor="#e53941ff"] ;
551 -> 552 ;
553 [label="entropy = 0.0\nsamples = 5\nvalue = [0, 0, 0, 0, 0, 5, 0, 0, 0, 0, 0, 0, 0]\nclass = Oranges", fillcolor="#39e5b4ff"] ;
551 -> 553 ;
554 [label="Most_Important_Issue <= 4.5\nentropy = 1.902\nsamples = 57\nvalue = [3, 7, 0, 0, 3, 36, 1, 3, 0, 2, 0, 0, 2]\nclass = Oranges", fillcolor="#39e5b494"] ;
488 -> 554 ;
555 [label="Avg_environmental_importance <= -0.135\nentropy = 2.483\nsamples = 16\nvalue = [2, 6, 0, 0, 1, 0, 1, 3, 0, 2, 0, 0, 1]\nclass = Browns", fillcolor="#e5ce393b"] ;
554 -> 555 ;
556 [label="Avg_environmental_importance <= -0.162\nentropy = 1.295\nsamples = 10\nvalue = [0, 6, 0, 0, 0, 0, 1, 3, 0, 0, 0, 0, 0]\nclass = Browns", fillcolor="#e5ce396d"] ;
555 -> 556 ;
557 [label="Most_Important_Issue <= 3.0\nentropy = 1.371\nsamples = 5\nvalue = [0, 1, 0, 0, 0, 0, 1, 3, 0, 0, 0, 0, 0]\nclass = Purples", fillcolor="#3978e57f"] ;
556 -> 557 ;
558 [label="entropy = 0.0\nsamples = 3\nvalue = [0, 0, 0, 0, 0, 0, 0, 3, 0, 0, 0, 0, 0]\nclass = Purples", fillcolor="#3978e5ff"] ;
557 -> 558 ;
559 [label="entropy = 1.0\nsamples = 2\nvalue = [0, 1, 0, 0, 0, 0, 1, 0, 0, 0, 0, 0, 0]\nclass = Browns", fillcolor="#e5ce3900"] ;
557 -> 559 ;
560 [label="entropy = 0.0\nsamples = 5\nvalue = [0, 5, 0, 0, 0, 0, 0, 0, 0, 0, 0, 0, 0]\nclass = Browns", fillcolor="#e5ce39ff"] ;
556 -> 560 ;
561 [label="Avg_education_importance <= -0.433\nentropy = 1.918\nsamples = 6\nvalue = [2, 0, 0, 0, 1, 0, 0, 0, 0, 2, 0, 0, 1]\nclass = Blues", fillcolor="#e5813900"] ;
555 -> 561 ;
562 [label="Yearly_ExpensesK <= 0.288\nentropy = 0.918\nsamples = 3\nvalue = [2, 0, 0, 0, 1, 0, 0, 0, 0, 0, 0, 0, 0]\nclass = Blues", fillcolor="#e581397f"] ;
561 -> 562 ;
563 [label="entropy = 0.0\nsamples = 2\nvalue = [2, 0, 0, 0, 0, 0, 0, 0, 0, 0, 0, 0, 0]\nclass = Blues", fillcolor="#e58139ff"] ;
562 -> 563 ;
564 [label="entropy = 0.0\nsamples = 1\nvalue = [0, 0, 0, 0, 1, 0, 0, 0, 0, 0, 0, 0, 0]\nclass = Khakis", fillcolor="#39e564ff"] ;
562 -> 564 ;
565 [label="Avg_monthly_expense_on_pets_or_plants <= -0.825\nentropy = 0.918\nsamples = 3\nvalue = [0, 0, 0, 0, 0, 0, 0, 0, 0, 2, 0, 0, 1]\nclass = Turquoises", fillcolor="#9a39e57f"] ;
561 -> 565 ;
566 [label="entropy = 0.0\nsamples = 1\nvalue = [0, 0, 0, 0, 0, 0, 0, 0, 0, 0, 0, 0, 1]\nclass = Yellows", fillcolor="#e53941ff"] ;
565 -> 566 ;
567 [label="entropy = 0.0\nsamples = 2\nvalue = [0, 0, 0, 0, 0, 0, 0, 0, 0, 2, 0, 0, 0]\nclass = Turquoises", fillcolor="#9a39e5ff"] ;
565 -> 567 ;
568 [label="Most_Important_Issue <= 6.5\nentropy = 0.769\nsamples = 41\nvalue = [1, 1, 0, 0, 2, 36, 0, 0, 0, 0, 0, 0, 1]\nclass = Oranges", fillcolor="#39e5b4de"] ;
554 -> 568 ;
569 [label="entropy = 0.0\nsamples = 36\nvalue = [0, 0, 0, 0, 0, 36, 0, 0, 0, 0, 0, 0, 0]\nclass = Oranges", fillcolor="#39e5b4ff"] ;
568 -> 569 ;
570 [label="Avg_monthly_expense_on_pets_or_plants <= 1.147\nentropy = 1.922\nsamples = 5\nvalue = [1, 1, 0, 0, 2, 0, 0, 0, 0, 0, 0, 0, 1]\nclass = Khakis", fillcolor="#39e56440"] ;
568 -> 570 ;
571 [label="Number_of_valued_Kneset_members <= -1.035\nentropy = 0.918\nsamples = 3\nvalue = [0, 1, 0, 0, 2, 0, 0, 0, 0, 0, 0, 0, 0]\nclass = Khakis", fillcolor="#39e5647f"] ;
570 -> 571 ;
572 [label="entropy = 0.0\nsamples = 1\nvalue = [0, 1, 0, 0, 0, 0, 0, 0, 0, 0, 0, 0, 0]\nclass = Browns", fillcolor="#e5ce39ff"] ;
571 -> 572 ;
573 [label="entropy = 0.0\nsamples = 2\nvalue = [0, 0, 0, 0, 2, 0, 0, 0, 0, 0, 0, 0, 0]\nclass = Khakis", fillcolor="#39e564ff"] ;
571 -> 573 ;
574 [label="entropy = 1.0\nsamples = 2\nvalue = [1, 0, 0, 0, 0, 0, 0, 0, 0, 0, 0, 0, 1]\nclass = Blues", fillcolor="#e5813900"] ;
570 -> 574 ;
575 [label="Avg_Residancy_Altitude <= 0.051\nentropy = 2.413\nsamples = 144\nvalue = [15, 0, 0, 1, 38, 4, 5, 26, 0, 2, 4, 0, 49]\nclass = Yellows", fillcolor="#e539411a"] ;
487 -> 575 ;
576 [label="Avg_Residancy_Altitude <= -0.353\nentropy = 2.151\nsamples = 74\nvalue = [6, 0, 0, 1, 5, 3, 5, 26, 0, 0, 0, 0, 28]\nclass = Yellows", fillcolor="#e539410b"] ;
575 -> 576 ;
577 [label="Weighted_education_rank <= -0.267\nentropy = 0.953\nsamples = 19\nvalue = [0, 0, 0, 0, 0, 2, 2, 15, 0, 0, 0, 0, 0]\nclass = Purples", fillcolor="#3978e5c3"] ;
576 -> 577 ;
578 [label="entropy = 0.0\nsamples = 14\nvalue = [0, 0, 0, 0, 0, 0, 0, 14, 0, 0, 0, 0, 0]\nclass = Purples", fillcolor="#3978e5ff"] ;
577 -> 578 ;
579 [label="Most_Important_Issue <= 3.0\nentropy = 1.522\nsamples = 5\nvalue = [0, 0, 0, 0, 0, 2, 2, 1, 0, 0, 0, 0, 0]\nclass = Oranges", fillcolor="#39e5b400"] ;
577 -> 579 ;
580 [label="Avg_environmental_importance <= -0.37\nentropy = 0.918\nsamples = 3\nvalue = [0, 0, 0, 0, 0, 0, 2, 1, 0, 0, 0, 0, 0]\nclass = Pinks", fillcolor="#39c5e57f"] ;
579 -> 580 ;
581 [label="entropy = 0.0\nsamples = 2\nvalue = [0, 0, 0, 0, 0, 0, 2, 0, 0, 0, 0, 0, 0]\nclass = Pinks", fillcolor="#39c5e5ff"] ;
580 -> 581 ;
582 [label="entropy = 0.0\nsamples = 1\nvalue = [0, 0, 0, 0, 0, 0, 0, 1, 0, 0, 0, 0, 0]\nclass = Purples", fillcolor="#3978e5ff"] ;
580 -> 582 ;
583 [label="entropy = 0.0\nsamples = 2\nvalue = [0, 0, 0, 0, 0, 2, 0, 0, 0, 0, 0, 0, 0]\nclass = Oranges", fillcolor="#39e5b4ff"] ;
579 -> 583 ;
584 [label="Yearly_ExpensesK <= -0.254\nentropy = 2.063\nsamples = 55\nvalue = [6, 0, 0, 1, 5, 1, 3, 11, 0, 0, 0, 0, 28]\nclass = Yellows", fillcolor="#e5394163"] ;
576 -> 584 ;
585 [label="Avg_education_importance <= -0.167\nentropy = 1.452\nsamples = 17\nvalue = [0, 0, 0, 0, 0, 1, 3, 11, 0, 0, 0, 0, 2]\nclass = Purples", fillcolor="#3978e592"] ;
584 -> 585 ;
586 [label="Avg_education_importance <= -0.389\nentropy = 0.817\nsamples = 12\nvalue = [0, 0, 0, 0, 0, 1, 1, 10, 0, 0, 0, 0, 0]\nclass = Purples", fillcolor="#3978e5d1"] ;
585 -> 586 ;
587 [label="entropy = 0.0\nsamples = 1\nvalue = [0, 0, 0, 0, 0, 1, 0, 0, 0, 0, 0, 0, 0]\nclass = Oranges", fillcolor="#39e5b4ff"] ;
586 -> 587 ;
588 [label="Number_of_valued_Kneset_members <= 0.281\nentropy = 0.439\nsamples = 11\nvalue = [0, 0, 0, 0, 0, 0, 1, 10, 0, 0, 0, 0, 0]\nclass = Purples", fillcolor="#3978e5e6"] ;
586 -> 588 ;
589 [label="Avg_government_satisfaction <= -0.306\nentropy = 0.918\nsamples = 3\nvalue = [0, 0, 0, 0, 0, 0, 1, 2, 0, 0, 0, 0, 0]\nclass = Purples", fillcolor="#3978e57f"] ;
588 -> 589 ;
590 [label="entropy = 0.0\nsamples = 1\nvalue = [0, 0, 0, 0, 0, 0, 1, 0, 0, 0, 0, 0, 0]\nclass = Pinks", fillcolor="#39c5e5ff"] ;
589 -> 590 ;
591 [label="entropy = 0.0\nsamples = 2\nvalue = [0, 0, 0, 0, 0, 0, 0, 2, 0, 0, 0, 0, 0]\nclass = Purples", fillcolor="#3978e5ff"] ;
589 -> 591 ;
592 [label="entropy = 0.0\nsamples = 8\nvalue = [0, 0, 0, 0, 0, 0, 0, 8, 0, 0, 0, 0, 0]\nclass = Purples", fillcolor="#3978e5ff"] ;
588 -> 592 ;
593 [label="Avg_monthly_expense_on_pets_or_plants <= 0.498\nentropy = 1.522\nsamples = 5\nvalue = [0, 0, 0, 0, 0, 0, 2, 1, 0, 0, 0, 0, 2]\nclass = Pinks", fillcolor="#39c5e500"] ;
585 -> 593 ;
594 [label="Avg_monthly_expense_on_pets_or_plants <= -0.64\nentropy = 1.0\nsamples = 4\nvalue = [0, 0, 0, 0, 0, 0, 2, 0, 0, 0, 0, 0, 2]\nclass = Pinks", fillcolor="#39c5e500"] ;
593 -> 594 ;
595 [label="entropy = 0.0\nsamples = 1\nvalue = [0, 0, 0, 0, 0, 0, 1, 0, 0, 0, 0, 0, 0]\nclass = Pinks", fillcolor="#39c5e5ff"] ;
594 -> 595 ;
596 [label="Avg_Residancy_Altitude <= -0.171\nentropy = 0.918\nsamples = 3\nvalue = [0, 0, 0, 0, 0, 0, 1, 0, 0, 0, 0, 0, 2]\nclass = Yellows", fillcolor="#e539417f"] ;
594 -> 596 ;
597 [label="entropy = 0.0\nsamples = 1\nvalue = [0, 0, 0, 0, 0, 0, 1, 0, 0, 0, 0, 0, 0]\nclass = Pinks", fillcolor="#39c5e5ff"] ;
596 -> 597 ;
598 [label="entropy = 0.0\nsamples = 2\nvalue = [0, 0, 0, 0, 0, 0, 0, 0, 0, 0, 0, 0, 2]\nclass = Yellows", fillcolor="#e53941ff"] ;
596 -> 598 ;
599 [label="entropy = 0.0\nsamples = 1\nvalue = [0, 0, 0, 0, 0, 0, 0, 1, 0, 0, 0, 0, 0]\nclass = Purples", fillcolor="#3978e5ff"] ;
593 -> 599 ;
600 [label="Avg_government_satisfaction <= -0.267\nentropy = 1.318\nsamples = 38\nvalue = [6, 0, 0, 1, 5, 0, 0, 0, 0, 0, 0, 0, 26]\nclass = Yellows", fillcolor="#e539419f"] ;
584 -> 600 ;
601 [label="entropy = 0.0\nsamples = 17\nvalue = [0, 0, 0, 0, 0, 0, 0, 0, 0, 0, 0, 0, 17]\nclass = Yellows", fillcolor="#e53941ff"] ;
600 -> 601 ;
602 [label="Avg_government_satisfaction <= 0.009\nentropy = 1.742\nsamples = 21\nvalue = [6, 0, 0, 1, 5, 0, 0, 0, 0, 0, 0, 0, 9]\nclass = Yellows", fillcolor="#e5394133"] ;
600 -> 602 ;
603 [label="Avg_environmental_importance <= 0.089\nentropy = 1.149\nsamples = 7\nvalue = [1, 0, 0, 0, 5, 0, 0, 0, 0, 0, 0, 0, 1]\nclass = Khakis", fillcolor="#39e564aa"] ;
602 -> 603 ;
604 [label="entropy = 0.0\nsamples = 5\nvalue = [0, 0, 0, 0, 5, 0, 0, 0, 0, 0, 0, 0, 0]\nclass = Khakis", fillcolor="#39e564ff"] ;
603 -> 604 ;
605 [label="entropy = 1.0\nsamples = 2\nvalue = [1, 0, 0, 0, 0, 0, 0, 0, 0, 0, 0, 0, 1]\nclass = Blues", fillcolor="#e5813900"] ;
603 -> 605 ;
606 [label="Avg_environmental_importance <= -0.39\nentropy = 1.264\nsamples = 14\nvalue = [5, 0, 0, 1, 0, 0, 0, 0, 0, 0, 0, 0, 8]\nclass = Yellows", fillcolor="#e5394155"] ;
602 -> 606 ;
607 [label="entropy = 0.0\nsamples = 7\nvalue = [0, 0, 0, 0, 0, 0, 0, 0, 0, 0, 0, 0, 7]\nclass = Yellows", fillcolor="#e53941ff"] ;
606 -> 607 ;
