digraph Tree {
node [shape=box, style="filled", color="black"] ;
0 [label="Weighted_education_rank <= 0.131\nentropy = 0.252\nsamples = 6500\nvalue = [6226, 274]\nclass = NOT_Violets", fillcolor="#e68742"] ;
1 [label="Avg_Residancy_Altitude <= 0.453\nentropy = 0.047\nsamples = 4416\nvalue = [4393, 23]\nclass = NOT_Violets", fillcolor="#e5823a"] ;
0 -> 1 [labeldistance=2.5, labelangle=45, headlabel="True"] ;
2 [label="Avg_Residancy_Altitude <= -0.018\nentropy = 0.015\nsamples = 4258\nvalue = [4252, 6]\nclass = NOT_Violets", fillcolor="#e58139"] ;
1 -> 2 ;
3 [label="entropy = 0.0\nsamples = 3507\nvalue = [3507, 0]\nclass = NOT_Violets", fillcolor="#e58139"] ;
2 -> 3 ;
4 [label="entropy = 0.067\nsamples = 751\nvalue = [745, 6]\nclass = NOT_Violets", fillcolor="#e5823b"] ;
2 -> 4 ;
5 [label="Avg_monthly_expense_on_pets_or_plants <= 1.002\nentropy = 0.493\nsamples = 158\nvalue = [141, 17]\nclass = NOT_Violets", fillcolor="#e89051"] ;
1 -> 5 ;
6 [label="entropy = 0.614\nsamples = 112\nvalue = [95, 17]\nclass = NOT_Violets", fillcolor="#ea985c"] ;
5 -> 6 ;
7 [label="entropy = 0.0\nsamples = 46\nvalue = [46, 0]\nclass = NOT_Violets", fillcolor="#e58139"] ;
5 -> 7 ;
8 [label="Avg_monthly_expense_on_pets_or_plants <= 1.535\nentropy = 0.531\nsamples = 2084\nvalue = [1833, 251]\nclass = NOT_Violets", fillcolor="#e99254"] ;
0 -> 8 [labeldistance=2.5, labelangle=-45, headlabel="False"] ;
9 [label="Avg_education_importance <= 0.696\nentropy = 0.585\nsamples = 1791\nvalue = [1540, 251]\nclass = NOT_Violets", fillcolor="#e99659"] ;
8 -> 9 ;
10 [label="entropy = 0.679\nsamples = 1238\nvalue = [1016, 222]\nclass = NOT_Violets", fillcolor="#eb9d64"] ;
9 -> 10 ;
11 [label="entropy = 0.297\nsamples = 553\nvalue = [524, 29]\nclass = NOT_Violets", fillcolor="#e68844"] ;
9 -> 11 ;
12 [label="entropy = 0.0\nsamples = 293\nvalue = [293, 0]\nclass = NOT_Violets", fillcolor="#e58139"] ;
8 -> 12 ;
}